475 100
367 -0.024266884 -0.049637143 0.05106041 0.090648144 0.04151393 -0.36898616 0.067839846 0.33249366 -0.16717209 -0.09581667 0.018091965 -0.021849167 -0.017118044 0.026097722 0.005131983 -0.08718635 -0.04111453 -0.14171608 -0.048756752 -0.40423873 0.1602414 -0.059692733 0.24809296 -0.14897442 0.076396205 -0.0193811 -0.0974421 0.2803216 -0.25252065 0.23181117 -0.035410132 0.3311049 0.042377196 -0.17801736 0.05622212 0.13115999 -0.057051398 -0.38113973 -0.18667217 -0.018443257 0.046894606 0.074408025 -0.28647116 0.111367874 0.12002666 -0.24684465 0.23474959 0.17468141 -0.12594414 0.17594804 -0.036012903 0.10924849 0.09593764 0.026220104 -0.05142843 -0.057936557 0.07081099 -0.0754776 0.013857292 -0.053869583 0.2976599 0.10554788 -0.06219501 -0.14092244 -0.279762 0.25603047 0.030122422 0.112118684 -0.22780573 0.17866844 0.08847719 0.110950544 0.20655783 0.002414446 0.17844969 0.0973597 0.27578628 -0.015405278 0.03156279 -0.008574559 -0.09301338 0.16352811 0.014548573 0.31410325 -0.033855647 0.2473174 0.10004092 0.0013142973 0.22549298 0.017109787 0.18956205 0.18906729 -0.0064723613 0.0239551 0.32663542 0.21121366 0.031831373 -0.027945954 -0.11159508 0.117231146
322 -0.35494053 0.03657948 0.40451676 0.16810204 -0.055112537 -0.4151427 0.13918668 0.08438647 -0.13245454 -0.008759065 -0.06476109 -0.043060146 -0.18777616 0.35926634 0.239117 -0.3707002 -0.14108051 -0.4061113 -0.27598023 -0.10910251 -0.0073247612 0.08168023 0.3866311 -0.08332993 -0.14149277 0.049784847 -0.15418768 -0.045082565 -0.017087288 0.15547636 0.34207574 -0.08991301 -0.12037349 -0.35375068 -0.15360507 0.3002434 -0.11093794 -0.008012004 -0.0021672628 0.0042084143 -0.033850025 0.08273162 -0.14858548 0.07981332 0.1817937 0.14349118 0.13436513 -0.18251193 0.20579456 0.1547574 0.08195779 -0.046747074 -0.28930065 0.05644519 0.061370578 0.26377994 0.23665217 0.2298556 -0.18721862 0.22874738 0.18640654 0.047233436 -0.06516969 -0.36126047 -0.17073324 0.13841458 0.08994573 0.16635507 -0.027776338 0.20371467 -0.21228194 -0.09857346 0.0697163 -0.25614184 0.14871837 0.087132975 -0.31873518 -0.14863808 0.021520924 0.08419534 -0.2327139 -0.009329904 -0.085620694 0.26934084 -0.07180638 0.13769253 -0.078909755 0.08823479 0.12768288 -0.041442357 0.30897924 -0.06247707 -0.100584336 0.067563616 0.1867106 0.4055448 -0.047190957 0.043879867 -0.050950177 -0.1079491
254 0.14814287 0.026083898 -0.22075032 -0.19890195 0.16301675 0.029296119 0.07874957 0.48748833 -0.10391938 -0.06894991 -0.024849838 -0.14053924 0.25138482 -0.12285008 0.27195913 -0.1032955 0.25717497 0.14411387 0.062161688 -0.47476506 -0.3312517 -0.06368969 -0.08059908 0.022086158 0.06074443 -0.22640558 0.03924097 0.293305 -0.19099903 -0.1292601 0.011022718 0.2007154 -0.14492492 -0.07799143 -0.033760015 0.12665874 -0.22303455 -0.41479912 0.13143514 0.07220579 -0.16180114 -0.17107771 -0.37422726 0.0114407 0.30612326 0.03647513 -0.115721375 0.14278767 -0.053243626 0.091090165 0.3052792 -0.060112555 -0.007959619 -0.13731849 -0.3394475 -0.066687055 -0.031198235 -0.10308858 -0.09401837 -0.07516121 0.2442249 0.078674436 0.2774736 -0.27420262 -0.5850197 0.33634064 0.5442939 0.22866544 -0.067594916 0.05663517 0.18325584 -0.093649045 0.10059456 0.001792205 0.03614448 0.20536812 0.49478555 -0.022264827 -0.1524008 0.09165864 0.057502825 -0.054817908 -0.17300443 0.2154973 -0.327315 0.093329385 0.001144341 -0.14036345 -0.028613122 -0.0069230804 0.3655765 0.2768922 -0.011518913 0.13651367 0.4015856 0.29720446 0.08420206 -0.085662164 0.07022622 -0.20718074
208 -0.22786394 0.07167574 0.25509718 0.28612906 0.081789225 -0.44377482 -0.025715163 0.15229486 0.22341502 -0.11474936 0.04078207 -0.015078663 -0.040292837 0.23917907 0.38586095 -0.42922422 -0.06999884 -0.104904726 -0.28368607 0.013693642 0.005050445 0.31678545 0.32338116 0.17330961 -0.026920091 0.26124963 -0.2729929 -0.15445748 -0.045359533 0.04593668 0.19835724 -0.20148388 -0.07847402 -0.66779906 -0.07361282 0.4242055 -0.31535065 -0.051912986 -0.15178023 -0.14850728 0.009063103 0.07885217 -0.18565746 -0.06647002 0.46396664 0.04178101 0.037657894 -0.16009265 0.31162822 -0.009073879 0.1563255 0.08070027 -0.12199606 0.30290964 -0.06835826 0.29554504 0.08702803 0.19893694 -0.122391194 0.10332347 0.04817912 0.19157657 -0.17641188 -0.24298875 -0.10183726 -0.18424836 -0.06706876 0.10047616 -0.2270803 -0.048834298 -0.12846091 -0.1727608 0.27866498 -0.0015130405 0.090779714 0.14092784 0.093139715 -0.030650368 -0.18209682 0.041161176 -0.18841285 -0.17762862 -0.036353316 0.27016044 -0.2875675 0.06796279 -0.1722936 0.18195422 0.11154529 0.02793187 0.10089712 -0.024637673 0.03416046 0.28734684 0.26220086 0.48362687 0.14576793 -0.08314363 -0.42467657 -0.1689882
393 0.061058547 0.12851673 -0.27566865 -0.21062659 0.10510429 0.05372091 0.06591649 0.5274079 -0.24591838 0.029249182 0.11426785 -0.17365728 0.021595653 -0.1273972 0.002765965 -0.34372303 -0.06276157 -0.038186617 0.2326214 -0.55612296 0.09719704 0.06767775 0.017371058 0.3461763 -0.30883715 -0.12876064 -0.11288578 -0.043722253 -0.07567343 -0.06475616 -0.035089754 0.3841346 0.34497136 -0.28424886 -0.042887233 0.052814946 0.007656012 -0.17759497 -0.22673856 -0.0651955 0.17546238 -0.095012136 -0.3066577 0.27244014 0.28430375 -0.22861074 -0.32442862 0.056616586 -0.13125366 0.04747344 0.29187876 0.25229943 0.2949642 -0.15687092 -0.3756911 0.240819 0.06200318 -0.25362885 -0.31283087 -0.1415852 0.30662787 -0.21270828 0.16127095 -0.09657298 -0.4239628 0.34089556 0.5298494 0.025389407 -0.2390449 -0.13120943 -0.14214668 -0.042815927 0.267851 0.08524957 0.22831489 0.005881671 0.16596566 0.16352697 -0.123985745 0.056974873 0.26572782 -0.06883445 -0.0968106 0.056214593 -0.37035578 0.09055363 0.20333578 0.03096648 0.41339505 -0.123734385 0.07412489 0.19217141 0.051939595 0.18389355 0.2674469 -0.13900606 0.42806375 -0.27032593 0.18875305 0.11984944
190 -0.3931065 -0.10713379 0.14670165 -0.15289024 -0.2498701 -0.30864164 0.14268263 0.09992577 -0.05806535 -0.21029943 -0.019805143 0.033687446 -0.26321134 0.085864045 0.20148519 -0.27534845 -0.06307249 -0.11028049 -0.38966903 0.047098536 -0.074184865 0.072573625 0.24551146 -0.28538772 -0.055861976 0.010310838 -0.23651211 -0.34082788 -0.03993028 0.19358426 0.44390106 -0.12168482 0.011811256 -0.36007932 -0.22514312 0.25871506 -0.09236524 0.018399023 -0.1072133 -0.17730077 -0.08411787 -0.0030670469 -0.42982182 -0.31954896 0.1588015 -0.013910227 0.18903083 0.17574508 0.12184066 0.18430659 0.19824444 -0.40419927 0.06625648 0.3197276 -0.23641872 0.23706914 0.23536295 0.31345484 -0.20978215 0.21818651 -0.060118835 -0.14950211 0.16250923 -0.15804009 -0.26651263 0.0028530802 -0.038148243 -0.08360627 -0.06430579 -0.05132208 -0.40433314 -0.04695529 0.2028191 -0.07767532 -0.11558205 0.24893121 -0.09604299 0.18028031 0.042658936 -0.05095095 -0.21385022 0.28966966 -0.17149903 0.50704026 0.06589047 -0.073487155 -0.09158744 0.021998003 0.12159821 0.007642733 0.38249138 0.028440243 -0.12373861 -0.10425395 0.09694987 0.42810053 -0.07865861 -0.22016203 -0.18211658 -0.19748063
111 0.32448587 0.17824294 -0.16746905 0.12172701 0.3137435 -0.21002065 0.11228417 0.3542697 -0.12989502 -0.15540075 -0.055018947 0.11885332 0.17318 0.1890004 -0.06564495 0.17252368 0.12967707 -0.15639569 0.16619642 -0.48448774 0.053245638 0.05144579 0.08592687 -0.08942063 0.24511135 -0.019550312 -0.15530306 -0.20406608 -0.030057466 0.034684367 0.14975505 0.5459224 0.1553144 -0.0020082532 -0.180477 0.16744566 0.017513264 -0.28974602 -0.38680956 -0.28971174 -0.05330865 -0.3461485 -0.15954028 0.37786454 0.16253696 0.12630804 -0.34553117 -0.19962798 -0.3098195 -0.09514914 -0.028855262 -0.07738759 -0.053259134 0.17001253 -0.40877312 -0.23067985 0.2930325 -0.06915782 -0.1558389 -0.053830385 0.0037807552 0.2035428 0.13162625 -0.22784443 -0.1654845 0.31900483 -0.02990037 0.08428097 -0.3404665 0.053447355 -0.27246168 -0.026127523 -0.22051468 -0.1398052 0.3011391 -0.09104119 0.12598854 0.16660516 -0.2213398 -0.022721244 0.02034618 0.013998812 -0.6837875 0.102772616 -0.14197369 -0.1826318 0.07321694 0.118717015 -0.17230646 -0.17775525 0.0061482713 0.18188015 0.05243663 0.24343717 0.27532318 -0.028818836 0.33474654 -0.3404351 0.059025384 0.00102361
269 -0.028661815 0.10450358 0.3716359 0.21216598 -0.06811348 -0.282892 -0.01041659 0.11547432 -0.07504388 0.0018860281 0.033343084 -0.120396085 -0.19906944 0.15379588 0.3305628 -0.0820561 -0.019602302 -0.38341174 -0.53722394 -0.040508006 0.06817793 0.29456824 0.20655617 -0.028006352 0.036246236 0.08869807 -0.32556745 0.11577474 -0.1644687 0.47769982 0.3245867 0.04886636 0.03095286 -0.32626525 -0.348759 -0.019866126 -0.14852607 0.26728538 0.040297776 -0.17605886 0.27059668 -0.111641884 -0.088055745 -0.019688452 0.31847998 0.08695672 0.1060868 -0.08132933 0.39311355 0.16674437 0.14316943 -0.26927087 -0.20718159 0.0010478661 -0.1863039 0.378748 -0.1362162 0.22521736 0.004741217 0.1404191 0.1512634 0.12513974 -0.062212076 0.14270157 -0.4597356 0.0152662825 -0.06777771 0.15604371 -0.07559627 -0.14798327 -0.23095374 -0.25933966 0.20675041 -0.21481611 0.051565897 -0.0072692493 -0.055903986 -0.27364293 -0.25267226 -0.046146616 -0.22006033 0.011401538 -0.093597606 0.4041526 -0.053748954 -0.060492016 -0.4765638 0.32829368 0.2612317 0.15378362 0.4433912 -0.1611038 -0.1658872 0.13341312 0.20971502 0.43750215 -0.11522511 0.07534632 -0.3452972 -0.32784173
385 -0.46490467 0.29506883 0.42164275 0.07151776 -0.11189701 -0.38905677 -0.20453393 -0.009407831 -0.20054704 0.07159886 -0.21896024 -0.076971404 -0.14244646 0.1458666 0.450396 -0.16914777 0.08191993 -0.41899687 -0.44211063 -0.110297255 0.22095667 0.36322284 0.27524593 0.018788096 0.21962269 0.26032755 -0.17628899 -0.3237661 -0.13108851 0.08562951 0.24585727 -0.12691201 -0.04047355 -0.2870521 -0.15723294 0.35291523 -0.112164535 0.02741711 -0.16732149 -0.2078218 -0.12372 0.10594687 -0.24979399 -0.3403333 -0.030533198 0.2462998 -0.18678728 -0.057433028 -0.018056283 0.13873084 0.062923215 -0.26056325 -0.20492074 -0.120154925 0.10761655 0.122920044 0.11452614 0.3885204 -0.20266706 -0.035092328 0.019294411 -0.10788133 -0.066925816 0.08492744 -0.18099713 -0.03268085 -0.15674418 0.041058704 -0.24082401 0.101168275 -0.09411914 -0.09777661 0.3225707 -0.11765052 -0.20743705 0.1752048 -0.050994325 -0.10919139 -0.23665456 0.22511305 -0.3514863 -0.45713767 0.05884076 0.63937604 0.078602 0.10141442 -0.039640285 0.2922826 0.08865467 0.19195694 0.41283816 0.10686529 0.124768615 0.07869743 0.36909583 0.55546963 -0.10983527 0.05597623 -0.01265824 -0.13642979
192 -0.40720892 0.0020217942 0.083984256 0.39119557 -0.18859507 -0.5448212 0.047024295 0.11182511 -0.10073524 -0.2199483 -0.0803867 -0.24462257 -0.33425665 0.27461153 0.0006759986 -0.2940882 -0.11267691 -0.5527809 -0.06693677 -0.3638278 0.019725557 0.17572169 0.35592797 -0.018694773 0.1261212 0.071307026 -0.047826562 -0.21368898 -0.15527588 0.13751148 0.48100582 -0.1388185 0.039614588 -0.25680044 -0.21452224 0.021613417 -0.30257592 -0.07083161 -0.026918467 -0.09485823 -0.0932432 0.019415447 -0.008584556 -0.20453615 0.09134529 -0.10250193 -0.028042503 -0.029447105 0.518265 0.29676792 -0.0051183207 0.08743545 0.09547846 0.024604838 0.1399634 0.40981442 0.020806622 0.12904571 -0.09970503 0.3829085 0.26014462 0.12836163 0.28843957 -0.18038966 -0.2704763 -0.20361912 -0.15347774 -0.11539614 -0.20259227 0.118514776 -0.14070907 0.0054100663 0.01805147 -0.32897803 -0.05756065 0.049178734 0.027041167 -0.050808396 -0.111982234 -0.014779302 -0.13915786 -0.31528002 -0.06417001 0.57615685 -0.118214406 -0.32289547 -0.30370954 -0.04707368 0.16823904 0.28102446 0.1886924 0.093986176 -0.16456695 0.115039274 0.23702207 0.28469887 -0.018385075 0.2064631 -0.29494348 -0.13318096
303 0.2958543 0.19082573 0.035131164 -0.5247544 0.076845415 -0.25807378 -0.07349936 0.44078925 -0.16078423 -0.44908947 0.15768977 0.109870255 0.15101618 -0.20334987 0.1335043 -0.18767056 -0.13429838 -0.018673295 0.16661039 -0.4149403 0.22197448 -0.08732981 0.07965216 -0.19097205 -0.29417476 -0.085535996 -0.08832235 0.004451674 0.1768296 -0.17013009 0.06669805 0.17211086 0.29000363 0.2814082 0.077726774 0.11576711 0.14934787 -0.48404226 -0.2221074 -0.18730071 -0.052324776 0.06882999 0.09476661 0.34689087 0.36315462 0.14233302 -0.0034476179 -0.07270795 -0.025504129 -0.11966827 0.19651207 0.0747816 -0.24948336 0.14907028 -0.15588075 0.093508914 -0.14414552 -0.18915775 -0.08576523 0.16423087 -0.14688773 -0.039332867 0.016559573 -0.015853416 -0.3210049 0.2862055 0.20441751 0.37319398 -0.2384061 0.0449712 0.13668121 -0.19182645 -0.20778619 0.059028808 0.44318834 0.51999474 0.20771205 0.20462252 0.021329995 0.22951964 0.41200182 0.5400935 0.0954708 0.14602686 -0.11444348 -0.06014174 -0.2243645 -0.06423575 0.23760849 -0.19614373 0.47494 0.44697592 -0.059684616 0.03749725 0.026104163 0.1180157 0.16431868 -0.16332339 -0.14701036 -0.3003918
461 0.18319544 -0.04932103 0.14596884 0.00973013 0.088317454 -0.20549664 0.09604169 0.46419588 -0.7164012 -0.20337686 0.200344 0.067030154 0.05569113 -0.2258083 0.15140417 -0.114623435 -0.11743744 -0.11672089 0.2322788 -0.2560987 -0.09227273 -0.020483335 0.22063705 -0.030768465 -0.13854429 -0.013621906 -0.11752948 0.2521937 -0.015069923 0.014116907 -0.09171993 0.23028225 0.2054277 -0.25309083 -0.022409465 0.015490309 0.32621068 -0.3953294 -0.02923378 -0.013793974 0.24146804 -0.46783137 0.23386952 0.06439305 0.042084448 -0.35819152 -0.1020624 0.470263 0.13912702 0.1363699 0.09038494 -0.057975404 0.13695599 0.25090966 -0.28313145 -0.0669575 -0.17491041 0.314473 -0.20910984 -0.19185346 0.2851479 -0.110783674 0.22631523 0.21351278 -0.4906896 0.46150368 0.16312382 0.07038586 -0.2712802 0.17306231 -0.16592418 0.094979346 0.20733508 0.1590241 0.33751732 0.3242442 -0.15432061 0.24563822 -0.03914813 0.08090413 0.32211754 0.24959108 -0.09847642 0.094236605 0.024955135 -0.113856494 -0.05467021 0.48284042 0.09377927 -0.36636248 0.4053059 0.33096707 -0.1980354 -0.2258179 0.05071727 -0.13312408 0.1361307 -0.03910477 0.11173628 -0.12915595
71 -0.25657624 -0.041178003 0.083072014 -0.24007872 -0.05853448 0.07983839 0.22541603 0.33572805 0.037510533 0.04364144 -0.4952376 0.076151244 -0.30842453 -0.042205997 -0.09816186 -0.34110364 0.13819247 0.076738924 -0.10379467 -0.6133949 -0.38802356 -0.15401568 0.025748594 -0.15358642 -0.21939968 -0.104531035 -0.2058042 -0.018633634 -0.17783535 0.211839 -0.4289532 0.40978515 0.13023174 -0.001463228 -0.47028 -0.18090737 -0.042203713 -0.054897025 -0.07760299 -0.17104907 -0.18087356 -0.084871635 -0.18823983 0.21497524 0.026943028 -0.074827515 0.18415007 -0.22498359 0.2695794 0.12988101 -0.08513304 0.14745209 0.10307392 -0.11579303 -0.37228057 -0.032928083 -0.1004243 0.03451081 0.059713185 0.23874992 0.10644756 -0.25636864 0.009481361 -0.13532397 -0.23655938 -0.078214034 0.6226967 0.1918743 -0.33373904 0.28678957 0.21005332 0.25217864 0.34399515 -0.1368377 0.039622318 0.0039966432 0.2494864 0.09126671 -0.24665762 0.22682229 -0.019909889 0.2528871 -0.023755139 0.47432387 0.1384207 0.07092542 -0.044652373 -0.2725916 0.3894325 -0.3946629 0.21239787 0.23041502 0.49227256 -0.37132907 0.25661784 0.10725192 0.23928232 -0.20415355 0.23638397 0.018983504
92 -0.014819069 -0.015910061 0.042683158 -0.08188102 0.14186308 -0.10935753 0.11933206 0.34632623 0.0559771 -0.22548546 -0.28575692 0.10000059 0.30036655 -0.27439615 -0.02529578 -0.0528345 -0.044812005 -0.1456311 0.206668 -0.28008392 0.31816092 0.11168009 -0.12643966 -0.060594074 0.100164145 0.29387644 0.04738818 -0.02909616 -0.14122543 -0.1448746 0.19210796 0.3412858 0.2282702 -0.08187403 -0.046066243 0.1265549 0.008389094 -0.23033677 -0.03666513 -0.3778311 -0.39717087 -0.43225116 0.06421307 0.058332764 0.07136962 -0.36617625 -0.08381972 0.08221695 -0.12257441 -0.19928938 0.13625921 0.09236477 -0.22275421 0.16727999 -0.040947773 -0.21404405 0.28363442 0.077149324 -0.16627273 0.44949588 0.2712779 0.22190715 0.19578053 0.14634743 -0.024746321 -0.11945756 0.49142587 -0.08801131 -0.2858578 0.07966625 -0.17057608 -0.052475233 -0.1588996 0.36915788 0.34639114 0.1697563 -0.19949071 0.022993457 -0.22730379 0.26898056 -0.13735388 -0.15740827 0.084688365 0.28754744 -0.5114137 -0.09286391 0.4215664 0.2926825 0.08708629 -0.19009021 0.24631599 0.28371322 0.3064716 0.19020452 0.16066882 -0.22804786 0.2500494 -0.27584705 -0.17674333 0.05314153
147 0.12888509 -0.012777375 0.13645539 -0.17168465 0.025348252 -0.14871359 0.1003765 0.5480677 0.19208442 0.052159764 0.20168407 -0.36513406 0.16566513 -0.4328389 0.13539998 0.18496476 -0.23105879 -0.23274553 0.047841877 -0.27688193 0.18685192 0.11185649 -0.20759913 -0.10233351 -0.20452793 0.18320948 0.08262117 -0.0143518895 -0.035135232 -0.012238001 0.112441435 0.32125193 0.13756272 0.028880447 -0.08760806 -0.18565243 0.1573566 -0.08186834 -0.17682783 -0.0028525076 0.36845958 -0.20521618 0.10812696 0.16102093 0.29585513 -0.04844142 -0.20425865 -0.020444127 -0.24969651 -0.2275998 0.1916008 0.22370353 0.18458267 0.052373365 -0.11524473 -0.22752146 0.20525041 -0.23622078 -0.5459943 0.015877977 -0.06827011 0.32228383 0.2605069 0.009912869 -0.29474515 0.29798877 0.24746008 0.21317549 -0.41476816 0.04833527 -0.23853777 -0.26775387 -0.09660693 0.06524994 0.22958922 -0.027887404 0.047652483 0.27042243 -0.086579196 0.342997 0.12326625 0.30819672 -0.17503406 0.15378185 0.071030766 0.11092674 -0.040802676 0.11515574 0.2615499 -0.49499047 0.38079342 0.07260422 0.011038029 0.22824585 0.31679493 0.16601981 0.13396385 -0.078407206 0.055344194 -3.4968398e-05
399 -0.26632145 0.31402364 0.16733451 0.16952515 0.034904752 -0.5049146 0.07687915 0.23964992 -0.12319133 -0.21606743 -0.3125533 -0.18318103 -0.26880184 -0.043948587 0.08782912 -0.17460218 0.105883524 -0.31166437 -0.20957564 -0.11098989 0.011789086 0.49985322 0.35410267 -0.005706881 -0.04132972 0.032969985 -0.23816161 0.010874438 -0.23495106 0.17992279 0.34001073 -0.17253073 -0.20053266 -0.23792897 -0.24373668 0.41849706 -0.13390738 -0.3064068 0.05273573 -0.26998922 -0.18705904 0.03630371 -0.088952474 0.17045249 0.089619614 0.0024994838 -0.14029555 -0.2416572 0.2811032 -0.03817447 0.11179545 -0.2505666 -0.18498538 0.040237177 -0.10963489 0.23808996 0.022884198 0.09821518 -0.046147726 0.43176118 0.056263767 0.001662667 -0.09869296 -0.01419778 0.14545594 0.051541034 -0.23354618 0.26733208 -0.09519628 0.069867074 -0.2728303 -0.07620624 0.19218436 -0.25912428 0.055425644 0.30030948 -0.0606916 -0.17746091 -0.20634402 0.020851335 -0.42815244 -0.21250975 -0.04948408 0.45480454 0.0393448 0.16655733 -0.25748983 -0.27746788 0.17757137 0.18410727 0.33881256 0.17547719 0.10318781 -0.040382974 -0.12814225 0.34085783 0.07843555 0.16665383 -0.24540657 -0.02835864
335 0.02823855 0.13654709 0.1853899 -0.054609355 0.03981587 -0.4919824 0.22743034 0.07927785 0.31477296 0.19729283 -0.07299782 0.010671853 -0.31575927 0.024133304 -0.10558968 -0.4131352 -0.054060068 0.0043212404 -0.22269785 -0.5218678 0.51494694 0.39932933 -0.0022413516 0.20918454 0.04222954 0.5192023 0.17674722 -0.7788104 -0.40726018 0.13049567 0.09271224 0.20389436 -0.029998798 -0.23294143 -0.09159605 0.12913136 0.06596234 0.14796133 0.21047936 -0.17618495 0.029342605 -0.33528346 -0.17543447 0.32289723 0.17601466 -0.097776115 -0.044075202 -0.29145655 0.30679485 -0.24234132 -0.13914494 -0.35638002 0.05114285 -0.14507599 0.2814661 0.2329198 0.0010732202 0.012082384 -0.10169509 -0.11181073 -0.046288524 0.08898155 -0.19415797 -0.13729838 -0.1295985 -0.23609419 -0.31295338 0.03903558 -0.13879222 0.048142463 0.07558062 0.032730974 0.19158337 0.04522263 0.05715112 0.105481684 0.005167677 -0.11908797 -0.034887902 0.13100451 -0.22987162 -0.44978562 -0.44638842 0.39139137 -0.022422541 0.07035785 -0.38395596 -0.14069699 -0.04761869 -0.027599432 0.3934871 0.053415805 0.29654905 -0.03063571 0.04139132 0.42554215 -0.1565727 -0.1325955 -0.2380165 -0.15811394
17 -0.25627363 0.15187861 -0.05076783 0.08458831 -0.10755735 -0.28045288 0.39634284 0.2768198 0.18104324 -0.27216798 0.11839572 -0.45311043 0.10770399 -0.15763777 0.0399836 -0.31100005 0.14466155 0.026127681 0.0031994057 -0.104392886 -0.12922576 -0.17714089 -0.15980099 -0.18935251 0.25795853 0.31319088 -0.44469208 -0.08964453 -0.047665924 0.20453933 0.22383976 0.050014395 0.14697206 0.29225504 -0.051292773 0.37601238 -0.28197932 -0.026637176 0.24176085 -0.7259846 -0.0012694194 -0.5887183 0.030592306 0.061910648 0.1644783 -0.03952427 0.15120824 -0.17778029 -0.041980904 0.15460263 0.279261 -0.010365965 0.15293287 0.16984133 0.23085672 0.4231913 -0.22460422 0.08561826 -0.22741951 0.16964033 -0.21662244 0.21102491 0.18543878 -0.18034028 -0.05893345 0.016466487 0.08504088 0.10305015 -0.23318486 -0.46535194 -0.086841784 0.21158531 0.27745986 0.34736085 0.22206806 0.06185319 0.03433764 0.13277872 0.26256737 -0.1463724 0.05338979 0.21021233 0.010518094 0.11255248 0.17670035 0.0871878 0.038059063 -0.1904546 0.31273532 0.22979395 0.49546486 0.2835533 0.32291225 -0.35513452 0.0072424514 0.24008712 0.05310368 -0.021549506 0.16578715 -0.18378398
113 0.14289725 -0.23801449 0.06564488 -0.15999146 0.06983395 -0.28751424 0.108509265 0.12416471 -0.45167887 -0.13910739 -0.09123202 -0.18971507 -0.2126803 0.11727156 0.34990206 -0.19019327 0.08361194 0.12120183 -0.06192235 0.039656557 0.15535021 0.1090307 0.18890958 -0.34919995 0.11087204 0.110796735 -0.45534453 -0.14088415 -0.105769485 -0.022594381 0.5552008 0.0018351728 -0.23523284 -0.24909174 0.15846293 0.16315651 -0.119189 0.067766935 0.1092861 -0.15055616 0.0049706167 -0.037288174 0.07460981 -0.21923304 0.016599057 0.2811882 0.08718445 -0.08297083 0.13946484 0.2585588 0.016524255 -0.15483789 -0.20523265 0.33030462 -0.3326955 0.569877 0.03271596 -0.020934403 -0.105516605 0.32663116 -0.119301096 0.25318322 0.108072676 -0.025281452 -0.12638913 -0.1195383 0.1110576 0.1377081 -0.29441032 0.09212443 -0.07090722 -0.045780506 0.2413584 -0.23646489 0.2329115 0.20970055 -0.05377395 0.20498346 -0.5840029 0.08564354 -0.36712217 0.030620566 -0.40954584 0.40420106 0.2973681 0.10568814 -0.08580274 -0.0054307915 0.15370692 0.081406705 0.389584 -0.071305305 -0.114688836 0.3338962 0.13986486 0.32045123 -0.035097577 -0.1504911 -0.14709313 -0.34566543
428 -0.20153902 0.051000357 0.1462195 0.086605765 -0.1256281 -0.21402642 0.39097828 0.104125604 0.120317064 -0.08501717 0.05792379 -0.00025770132 -0.09939218 0.57529366 -0.120364904 -0.49104607 0.019806858 -0.57653475 -0.47106805 -0.21966158 0.1972519 0.36776882 0.044497162 -0.43218264 -0.020795928 0.12356587 -0.31734478 -0.16546166 -0.20887277 0.18702342 0.033408873 -0.10576982 0.0037655954 -0.12712198 -0.32424486 0.26622397 -0.28253633 -0.34967422 -0.075590156 -0.45094636 -0.07353325 0.19911896 0.060669683 0.25204894 0.09443486 -0.029687032 0.3535195 -0.23621169 0.20490246 0.100006066 0.06397846 -0.3218968 -0.065547585 -0.08373682 0.030724615 0.1788156 0.38001075 -0.013187266 0.15529756 0.16873571 0.34969386 -0.007629012 0.11489418 -0.065888256 -0.08270889 -0.15364473 -0.06272344 0.06891142 -0.11769258 0.34832495 -0.056931417 0.18938152 0.13802369 -0.035020337 -0.012248523 0.18061207 -0.07930598 -0.13938934 -0.3499941 -0.086783126 -0.41193798 0.18766207 -0.29216987 0.3261999 0.08705736 0.25117937 -0.23542717 0.20113415 -0.015088054 -0.0025834292 0.28389177 0.040276114 -0.38386378 -0.027083589 0.061572015 0.026329197 -0.17953806 -0.0072909896 0.003574264 0.10287194
436 0.017693989 -0.039762836 -0.0025601536 -0.01974057 0.32406655 -0.21673495 -0.09552823 0.16162214 -0.079173185 -0.047735725 0.1386875 0.034287065 0.2725066 -0.26042047 0.0077999956 -0.20367733 -0.12529218 0.023292318 0.16597909 -0.4183285 0.19574977 0.10726962 -0.07156414 0.3794314 -0.016254645 0.028156351 0.057783026 -0.28738078 -0.05809678 -0.33148688 -0.11122048 0.16255929 0.080855265 -0.1015597 -0.029469518 0.1640997 -0.06704067 -0.60312337 0.12161104 0.026306536 0.06338814 -0.27630892 -0.22435273 0.4303631 0.13645834 -0.34634954 -0.43929905 0.1371797 -0.06016339 0.114623435 0.06789317 -0.06356523 -0.010686244 -0.19356209 -0.09165718 0.19182761 0.117308296 0.0679484 -0.48001733 -0.18060924 0.18766807 0.08104665 0.096869774 -0.3872656 -0.43534824 0.36626953 0.37482855 -0.04551477 -0.20767875 0.27124223 -0.12751648 -0.109159 -0.1178857 0.09803801 0.5203202 0.14376149 0.19530512 0.336482 -0.4794128 -0.044311028 0.04456353 0.21641186 0.22240424 -0.17424782 -0.17474183 0.40512374 0.14565594 -0.05646105 0.24330789 -0.29086128 0.26690128 0.49707308 -0.027744336 0.17236589 0.55468214 -0.07705458 0.34817865 -0.25787088 -0.056686524 -0.13409343
350 -0.29927865 0.23908372 0.31989557 -0.32878822 -0.1540667 -0.21817099 0.08646451 0.049443666 -0.2690314 0.18655626 -0.19223651 0.18974344 -0.19822906 0.13356824 0.17774162 -0.33063626 0.077081926 -0.41255137 -0.050629254 0.07813932 0.04159501 -0.18531376 0.17111945 0.11177159 0.020835413 0.28120393 -0.22907935 -0.12530309 -0.10921775 0.4018315 0.5256149 0.009692914 -0.39764515 -0.31304887 -0.029543446 0.33466715 -0.30401847 -0.3109883 -0.37573776 -0.25236094 -0.09232738 0.21297197 -0.0033816905 -0.13847516 -0.12424252 0.09266704 0.024256064 -0.3592211 0.073370524 0.13653775 0.16541342 -0.06923551 -0.11374089 0.34222993 0.21851246 -0.001120567 0.18287069 0.11758696 -0.00209686 -0.10312399 0.14592518 0.3107494 -0.32703954 0.0075107263 -0.5772547 0.11088335 0.20524077 -0.14010805 -0.48683238 -0.061100464 -0.14052075 -0.08508804 0.17694907 -0.29851437 -0.03790624 -0.19262831 -0.16408476 0.08913502 -0.3330645 0.45047826 -0.34288442 0.040805127 0.36621258 0.5536784 -0.048734903 0.034601517 -0.07315196 0.03375944 0.083132945 -0.16543534 0.4576053 -0.053494733 -0.15962858 0.03388087 -0.037609853 0.29118568 -0.32461277 -0.15899783 -0.44700906 -0.047226124
179 0.27973798 0.24540803 -0.26779014 0.09214055 -0.10457179 -0.40624943 0.31878367 0.4348989 0.010448718 -0.14080417 0.055006605 -0.18760976 -0.11513024 -0.049734432 0.18979897 -0.14167345 -0.028383939 -0.28997555 0.20541145 -0.35885003 0.2637781 -0.2713975 -0.16970381 0.26647872 0.1006472 0.17690347 -0.27529755 0.18224914 0.016161107 -0.21027604 -0.15724382 0.24637952 -0.16913654 0.15251398 0.190322 0.22667286 0.0726545 -0.6406378 0.24798341 -0.14404353 0.26134047 -0.2985464 -0.2299623 -0.13724644 0.062159013 -0.3124398 -0.10278858 0.19604799 2.5137757e-05 -0.45457557 0.23930582 0.063948005 0.07365764 -0.027698984 -0.34261334 -0.016622163 0.16334882 -0.16955881 -0.23695868 -0.1629741 -0.07461028 -0.13917854 0.19385146 -0.12247301 -0.42523894 0.3536703 0.13610594 0.41389823 -0.41703978 -0.043611206 -0.081393935 -0.18132891 -0.13366032 0.23797289 0.1919659 0.22230184 0.10531026 -0.1353282 -0.23003787 0.069983184 -0.13895068 0.038812887 -0.18518545 -0.13040504 -0.301382 -0.062203422 -0.0769728 0.026257671 0.45145637 -0.16934757 0.22085235 0.58981174 -0.16207458 0.21769916 0.08461079 -0.105118714 0.3545673 -0.23742552 0.30129153 0.1136062
389 -0.17847085 -0.02178811 0.40136075 -0.31324828 -0.26386562 -0.2168032 0.10927857 0.2457405 -0.2888381 0.2226635 -0.06762466 -0.017011505 -0.32269073 0.30542645 0.27091968 0.08549898 0.16586515 -0.089962706 -0.037263785 0.015939832 0.1671129 0.24537699 0.14909212 -0.22369774 -0.19364813 -0.044639055 -0.29327577 -0.21115758 -0.071449086 0.010809749 0.33382466 -0.24546015 -0.2147776 -0.036743347 -0.15249291 -0.040206183 -0.13064604 -0.0785779 -0.18989195 -0.24670917 0.25977042 0.10763161 -0.11289637 -0.33402348 0.13675497 -0.19487779 -0.08317983 0.008746904 0.13910833 0.33190712 0.13072236 -0.23687024 0.18707323 0.3442066 0.030746471 0.6624893 0.038425867 0.058188938 -0.09482218 -0.06559347 -0.023789326 0.13980305 -0.06976427 0.07228341 -0.4273211 -0.04619959 -0.043203007 -0.047767784 -0.09759657 0.27081254 -0.3631516 -0.1556708 0.36833516 0.020525642 0.17423859 -0.1773052 0.014721494 -0.2085864 -0.16634622 0.22741131 -0.16486557 -0.24636397 -0.33256394 0.5385279 0.20598693 0.040045325 -0.029112287 0.23409916 -0.042703602 0.069993086 0.37474492 -0.20870921 -0.02654743 -0.16095136 0.12106717 0.43688133 0.0530275 -0.3714711 -0.33646518 -0.11574203
188 -0.18639554 0.26441395 0.124520466 0.2585943 0.04872976 -0.2870374 0.10803502 0.19379681 -0.25011232 -0.32880297 -0.12903927 0.12501709 -0.2635205 0.21529195 0.34735203 -0.2696336 0.10432075 -0.081408165 -0.5614261 0.11261809 -0.29846787 0.5425868 0.0829724 0.102132685 -0.45570806 0.052817926 -0.029828964 -0.123630516 -0.60780054 0.28499305 0.51916575 0.13915467 -0.080108054 -0.3043888 0.077678084 -0.10958963 0.0056732534 -0.37642467 0.0069100945 -0.04953537 -0.15461503 0.16087902 -0.01896228 -0.11751626 0.20325983 -0.108898476 0.26413396 -0.17125532 0.44882694 0.225416 -0.06583824 0.049553495 -0.033436645 0.18202518 0.008849383 0.46870416 -0.10279587 -0.16228019 -0.27535444 0.056358993 0.18826665 0.25863418 0.20382063 0.12999761 -0.22392087 -0.034424026 -0.24560806 -0.15695612 -0.29398513 0.31641826 -0.07745633 0.048064906 0.23982994 -0.13819131 0.21742153 -0.069186665 -0.096444234 -0.060582552 -0.03783202 0.2032373 0.009063326 -0.007313179 -0.11269051 0.63698435 0.26132646 0.19573471 -0.2012371 0.21714054 -0.06601541 -0.060530752 0.37480474 0.014819013 -0.029667463 -0.010866908 0.2115322 0.3898178 -0.059042815 -0.0004816418 -0.07233862 -0.040495276
401 0.24296196 0.16034478 0.125141 -0.026376015 0.22295481 -0.24055295 0.0031534156 0.5082854 0.14471132 -0.09683539 -0.3269472 0.0905079 0.030125415 -0.25502795 -0.19095486 0.12546262 0.15902089 0.038992368 0.013658266 -0.55783236 0.037194386 0.14114575 -0.2025047 -0.15226112 0.003912905 0.20549493 0.009148388 -0.09788438 -0.1705291 0.024406647 0.24456905 0.26591995 -0.07664678 -0.072230786 0.09798465 0.064558916 0.25246307 -0.1721523 -0.23691785 -0.006210046 -0.19268294 -0.46771672 0.10945566 0.14144428 0.030481618 -0.49559128 -0.4329051 -0.17168294 -0.023609035 -0.22385274 0.260905 0.06680757 -0.15786305 0.06626426 -0.010311717 -0.2509809 0.17853387 -0.07385255 -0.43409294 -0.1378587 0.2360873 -0.3408946 -0.09275359 0.12877882 -0.23771526 0.2928833 0.24768502 0.00979443 -0.37996498 0.10025228 -0.11306819 -0.20691177 -0.14088017 0.1141458 0.30676293 -0.037192777 0.08465738 -0.17043655 -0.23176369 0.021678552 0.17008977 0.11707291 -0.20316944 0.47462285 -0.30456364 0.2663839 0.02372056 0.21654707 -0.06941629 -0.25197688 0.29461846 0.119409956 0.4299954 0.07265566 0.32227993 -0.03796563 0.06525075 -0.10355014 0.17949905 -0.17143679
315 -0.024929285 0.38702676 0.15233795 0.21882644 0.2176037 -0.18244453 -0.031612154 0.31372705 -0.15582013 0.24084625 -0.28908935 -0.033197857 -0.0029245913 0.08691304 -0.16951649 -0.0791009 0.099778265 -0.14361902 0.31347415 -0.3029276 0.1346212 -0.18669195 -0.006621548 -0.22769381 -0.33787674 -0.21694998 0.08253133 0.22855692 -0.07531932 0.05541525 0.009429357 0.19712126 -0.30908433 0.20825262 0.2832417 0.46353176 0.05902627 -0.12137002 0.18822882 0.0016085254 -0.26783928 -0.04226968 0.2785725 0.018802963 0.35245338 -0.21008916 0.0200932 -0.38007495 0.011488778 -0.1410911 0.09880761 0.2840251 -0.046777792 -0.38302574 -0.062494054 0.14462131 0.17940165 -0.44234058 -0.25047714 -0.22830063 0.29128453 -0.2662517 0.13222313 0.27609894 -0.69567835 0.31041718 0.4245664 0.3511346 -0.49605486 0.14855723 -0.14509296 0.017005252 -0.09327541 0.13585334 0.27214533 0.1761398 -0.09738619 -0.02627639 -0.06713115 0.2781975 0.25858074 0.3209336 -0.45971787 -0.077836275 -0.070675366 0.100746095 -0.17783305 0.36155784 0.3005464 -0.11794107 0.24029946 0.08403638 -0.08990438 -0.086916044 0.16230527 0.17024508 0.21282446 -0.00037645356 0.04590406 0.29980716
137 -0.011105151 0.002379021 0.10574813 0.41510177 0.38619488 -0.113483466 0.37644455 0.03840244 -0.0051087453 0.17913705 0.21772948 -0.18664476 -0.32276413 0.114751585 0.10405549 0.022132901 0.22565094 0.044555046 -0.102190435 -0.035164285 0.093801916 0.42241275 0.29209477 0.18678598 -0.14791602 -0.18534273 -0.04810294 -0.09040163 -0.47162613 -0.011863613 0.28642863 0.043367665 -0.11287918 -0.28395408 -0.06869374 0.19022718 -0.09210816 -0.34843057 -0.13598368 0.033825677 0.031365395 0.021953057 0.060560595 -0.1797681 0.38826627 0.1145323 -0.52881646 -0.21393274 0.37160218 0.11390956 -0.16515395 -0.2924248 0.15235953 0.28635368 0.23734407 -0.15640715 0.37232953 0.12445257 -0.08635377 0.29322186 0.027649136 0.014238094 -0.095209554 -0.47198436 -0.4159319 -0.42420688 -0.34071046 -0.1948752 -0.45618686 -0.054105558 -0.15426537 0.022716396 -0.008872377 -0.19067311 0.117291965 -0.17313147 -0.09079839 -0.29469573 -0.23518291 -0.0358342 -0.052259754 -0.14967264 -0.1359247 0.25562936 -0.18040405 -0.27004153 -0.42140546 0.39486167 0.3440136 0.052510962 0.35213464 0.108380064 -0.16267115 0.03609344 0.18133336 0.44396535 -0.014569475 -0.31623614 -0.30228326 -0.2510036
242 0.007597418 -0.24519303 0.07970312 0.22935641 -0.06489971 -0.08661859 -0.28286466 0.007343573 0.017106742 0.08181032 -0.12267953 -0.05431336 -0.10780151 0.29532796 0.09508068 -0.026187727 -0.16999793 -0.43103358 -0.36045614 0.031920776 0.06965183 0.1484085 0.23710093 -0.32196352 0.27452138 0.037648603 -0.17902979 -0.35561848 -0.2709442 0.037756983 0.6786229 0.123282015 -0.077727705 -0.1065391 -0.24464431 0.3761487 -0.15770651 0.1496964 -0.21489537 -0.11030734 0.16672055 0.085402 0.0013494812 -0.2625757 0.32240918 0.31617787 -0.15572461 0.059088945 0.046169396 0.018671311 0.19270866 -0.15864332 -0.13459565 0.044692494 -0.07174627 0.14621744 0.09537004 0.10811719 -0.24700002 -0.046375062 -0.10347544 0.013044335 -0.1917678 0.14721726 -0.4448846 -0.13736683 -0.15840693 -0.04073825 -0.07661778 0.3734428 -0.32919645 -0.07212835 0.45475712 0.21290825 -0.089509204 0.36218324 0.07454869 -0.2153725 -0.121400565 0.026858477 -0.28688532 -0.086128205 -0.07131223 0.6996687 -0.088947766 0.0010589813 0.060286026 0.19467026 0.09370175 0.018023714 0.52562004 -0.04860836 -0.15787122 0.13370539 0.23942317 0.30112326 -0.2808789 -0.12394062 -0.4449751 -0.1319523
105 -0.13310908 -0.046817966 0.08405866 -0.12704778 0.25625518 -0.20017774 0.122096084 -0.14095603 -0.3869325 0.22780415 -0.060074095 -0.054570273 -0.30350867 0.43959194 0.1620661 -0.25347516 0.08340717 -0.38221368 -0.3906421 -0.25185925 0.15961757 0.01956519 0.2085333 0.23038197 0.45946348 0.2480845 -0.09865545 -0.12299511 0.10586431 0.18231677 0.38989195 -0.1560064 -0.35794804 -0.25350812 -0.09051939 0.5280704 -0.07272259 0.115365475 -0.18278305 -0.27672812 -0.2567261 0.14308524 -0.17609964 -0.124985054 -0.110579126 -0.26102802 -0.14684953 -0.004500182 0.13836117 0.17199805 0.3627231 -0.1489427 0.002555989 -0.16260092 -0.14204587 0.3780736 0.17875527 0.3627403 -0.102567054 0.0013415437 -0.048242077 0.05579035 -0.111773424 -0.09726278 -0.25113428 0.0024570609 -0.013019409 0.042200014 -0.13418664 -0.058985528 -0.13886622 0.06673408 -0.14699155 -0.10002595 -0.1814141 0.34231958 -0.05153532 0.37423557 -0.17753495 0.22041982 -0.3172801 0.17574088 -0.19189472 0.5509816 0.23433423 0.0013285459 -0.24167791 0.26793882 0.13956824 -0.015698005 0.4875362 0.11787651 -0.1516149 0.10428167 0.13183957 0.278859 -0.041490853 -0.29335123 -0.46706796 -0.084781215
87 0.17903084 0.19954517 0.13206214 0.14756592 -0.1778554 -0.31375182 -0.2109067 0.2942169 -0.16307724 0.21104556 -0.27964497 -0.25670028 0.16637522 -0.047914848 -0.08606127 0.085331045 -0.06760233 -0.3129883 0.17539552 -0.5280596 -0.16163808 -0.47773832 -0.1579533 -0.29269448 0.04357084 0.27786487 -0.1533661 -0.10919784 -0.07477741 0.068172485 0.32711917 0.46046966 0.13693134 0.06681717 -0.35641226 -0.041337214 0.079087004 -0.021078208 -0.0006922662 0.15785745 -0.0062128287 -0.28039536 0.006839829 -0.335776 -0.29314888 -0.37407544 0.11866806 -0.037608176 -0.20639163 -0.08325379 0.07004214 0.19323146 -0.0235578 0.23490337 -0.29178596 0.010717647 0.20024018 -0.29887128 -0.25068077 0.22121409 -0.002189844 -0.17881146 0.14285336 -0.050753094 -0.12069008 0.22304325 0.29295012 0.079529785 -0.6069403 -0.025908247 -0.13460618 -0.49133536 0.3135594 0.070245035 0.1819407 -0.14939894 0.08980605 0.22394203 0.114324965 0.095567316 0.038344532 0.25576696 -0.23095351 0.27012572 -0.06639214 0.057080768 0.22830881 0.07567248 0.36865577 0.024688534 0.18244094 0.16312739 0.4673118 -0.28809977 0.37226582 -0.15276183 0.18133812 -0.34246543 -0.18974781 0.024738623
215 0.2900477 -0.08159667 0.103285834 -0.018440882 0.28707755 -0.118898146 -0.20637378 0.27308163 -0.07407983 -0.05528549 -0.039361153 0.29098493 -0.16488765 -0.04058247 0.21665242 0.0009553763 0.05186047 0.006437522 0.101885386 -0.5941784 0.2850212 -0.14327422 -0.15908433 -0.16713846 0.070084 0.012368372 -0.05446352 0.019990152 0.0550948 0.01739411 0.03147947 0.20560656 -0.018171595 0.11820983 -0.07052342 0.14212686 0.27047315 -0.4471507 -0.18387221 -0.16286838 0.07781659 -0.36906832 -0.0025004388 0.076858684 0.36956903 0.13618752 0.04267954 -0.15478422 -0.07484701 -0.16465783 -0.08048277 0.35458872 0.14842184 0.15593344 -0.4080993 0.034063246 0.21713653 -0.043354794 -0.021509297 0.29858452 0.26861152 0.17659746 0.014359814 -0.08122329 -0.09764635 0.41512904 0.46987513 -0.0754494 0.079797685 0.3382325 -0.06519906 -0.1592474 -0.0021588956 -0.12524825 0.4185846 0.086129904 0.1800813 0.35706678 0.12058148 0.46998152 0.2855602 0.29244965 -0.07212464 0.0508205 -0.25357568 0.21688378 0.09461917 0.08980657 0.15892583 -0.012067533 0.39126015 0.45288122 -0.18874876 -0.18850076 0.38453922 0.18543445 0.16594175 -0.19386685 0.26554966 -0.21042913
298 0.18492587 -0.2582567 0.08341395 0.05782196 0.04726549 -0.4525145 0.007980424 0.34836355 0.12977543 0.002143595 0.07000495 0.015393003 -0.07270722 -0.17545104 -0.039634313 0.24207532 -0.10805421 -0.009661982 0.27794245 -0.84052795 0.04059034 -0.3139107 0.116254 -0.035794087 -0.10751068 0.11583447 0.31820923 0.29715586 0.02948549 -0.03181749 -0.15916398 0.224415 0.13211226 0.049347993 0.288233 0.22792265 -0.10027606 -0.40183428 0.009195115 -0.26657796 -0.047433604 -0.1527548 -0.042935055 -0.042662065 0.28763106 -0.055536173 0.25625652 -0.052038718 0.12531878 -0.06487366 -0.071122244 0.06615404 0.15273403 -0.028300503 0.025730079 -0.10833774 0.12312864 -0.037591487 -0.119190544 0.23485646 0.04758717 0.08328856 0.24506432 0.043833606 -0.6515796 0.11224387 0.20959084 0.35462195 -0.5724283 0.16720377 -0.1498588 -0.2660781 0.17926043 -0.01825227 0.31813937 -0.03780432 -0.15821984 0.34643412 -0.34620917 0.06799357 -0.09426513 0.30453694 -0.17401086 -0.12648298 -0.08397381 0.20849553 0.04179269 0.10836938 0.3248276 -0.111033626 0.2122997 0.059000406 0.11779126 -0.02598329 0.3077181 0.05557584 0.3846774 -0.3809761 0.19575723 -0.0010946385
452 -0.20099102 0.08491176 0.033346202 -0.10439522 -0.22094995 -0.46796903 0.25981748 0.32083112 -0.4129998 0.19119498 -0.18443194 -0.03675503 -0.27727762 0.30683824 -0.0008998137 -0.15250897 -0.105139 -0.19680688 -0.07706771 0.008937631 -0.11160836 -0.1813903 0.065232 0.06734064 0.089513436 -0.22939847 -0.0078217685 -0.36977667 -0.1858637 0.31586906 0.4023191 -0.1305005 -0.24225274 -0.7126197 -0.057317987 0.5869124 -0.21581705 0.11226836 0.21773398 -0.21865354 -0.15570627 -0.1396703 -0.09786729 0.24380551 0.115366355 -0.09202369 0.39304176 -0.39187235 -0.032599594 0.2731134 0.2011834 0.13638984 0.09776155 -0.17272227 0.1944931 0.3528559 -0.14055361 -0.001631248 -0.1211722 0.23821802 -0.33729523 0.18606688 -0.052806403 0.111055434 -0.35166436 0.13048588 0.008741248 -0.1359257 -0.11867726 0.21494707 0.14657475 0.03298408 0.14591004 -0.059745427 0.1211123 0.123413995 0.05369046 -0.45854568 -0.009330014 0.1854997 0.33642486 -0.43800685 0.38539755 0.30382943 0.08548069 0.0035442095 -0.2780196 0.14742336 0.2975601 0.25898722 0.44643444 0.11658836 0.046777915 0.096011356 -0.17222558 0.5505495 0.022791434 -0.45950544 -0.41539225 -0.21196005
132 -0.18509378 0.064149044 0.13148312 0.11356953 -0.110395715 -0.30146053 -0.09221255 0.0958049 0.04214184 0.005251703 -0.06651898 -0.2523831 -0.3317092 0.41730016 0.36375806 -0.25886935 0.055566445 -0.24063917 -0.17500538 -0.2665052 0.060344324 0.60890543 0.050000906 -0.22997326 -0.10835467 0.021886228 0.122823186 -0.43314132 -0.22566335 0.018130457 0.3374402 -0.12576255 -0.08297269 -0.39676622 -0.38193554 0.1819354 -0.24011903 -0.032854367 0.0118448 -0.15844493 -0.21710187 0.27040166 0.09584415 -0.24730909 0.19621266 0.22439446 0.10140729 0.08581861 0.15845183 0.047345422 -0.030422112 -0.4533226 -0.1243559 -0.041178893 0.13046534 0.49855837 0.10288468 0.37118673 -0.032238953 0.14530428 -0.06410927 0.20567496 0.07999074 0.10244589 -0.33563155 0.15949552 -0.43360257 -0.10691221 -0.024356876 -0.073381186 -0.09492415 -0.2521767 0.03750615 -0.09931777 0.22015557 0.28020915 -0.095623836 -0.07250484 -0.30533934 0.24423362 -0.36181056 -0.37567216 -0.21086039 0.60418785 0.18127473 -0.13664772 -0.06129515 0.3443106 0.35785535 0.093696356 0.3571535 0.18328412 -0.05969311 0.098327294 0.22560535 0.32257986 -0.08201651 -0.08615189 -0.3287242 -0.1544445
382 -0.1387206 -0.35687333 -0.062074084 0.22586033 -0.33386582 -0.2439705 0.08181845 0.2693859 -0.029687358 -0.22105512 -0.06020688 0.13157126 -0.18871449 0.005086225 0.29296434 -0.4255358 -0.2762927 0.0011808646 -0.3919348 0.026322994 0.07604697 0.09869878 0.29086456 -0.14848195 -0.16154513 0.030607427 -0.07585698 -0.18492347 -0.08346418 0.4025211 0.28853667 0.089009814 0.15656145 -0.23872297 0.117006965 0.1967181 -0.2920889 -0.18739606 -0.7549753 -0.048489064 -0.25723207 0.1481502 -0.39244336 -0.3186736 0.076405756 -0.15699103 -0.11994393 -0.10555341 0.29508775 0.33690488 0.19974487 0.026510464 -0.392077 -0.06043158 -0.00812977 0.3661456 0.15877678 0.4535365 -0.17670557 0.16791268 -0.22243777 0.38526204 -0.36762154 -0.34417197 -0.46720037 0.041597545 -0.40904108 -0.010038739 -0.23116137 0.3244629 -0.39482763 -0.2092036 0.25455493 -0.3106054 -0.046711165 -0.022836043 -0.052744318 -0.09883046 -0.042289533 0.31275064 -0.5006603 -0.1702993 0.15727954 0.3605599 -0.36815256 -0.14261863 -0.29940826 0.16886194 0.10358361 0.19585846 0.30048352 0.00463792 -0.036313016 0.09920333 0.09567978 0.1689226 0.185731 0.028014699 -0.48647845 -0.1497753
134 0.02949284 0.47652593 -0.46368065 -0.00810605 0.002337562 -0.28271067 0.33820996 0.27068827 -0.16785884 0.22274777 -0.09904526 -0.34321347 -0.40010816 -0.086843155 0.2613216 -0.13885702 -0.06387413 0.09348868 -0.18638487 -0.32086706 0.08028839 0.087963246 -0.20865166 0.005336496 -0.118302286 -0.40104315 -0.39310318 -0.27093327 -0.0117537435 0.19021502 0.03840054 -0.5077238 -0.13508569 -0.6646248 -0.14314799 0.6900624 0.010882847 -0.09720502 -0.41334856 -0.30233613 -0.17166439 0.19180477 0.08353676 -0.13865305 0.29822063 -0.0011185828 0.10423483 -0.20184433 0.12474177 0.4523476 0.23863323 0.01811516 -0.41868523 -0.05587247 0.07749231 0.11630394 0.2487671 -0.054575182 -0.16765511 -0.061109632 0.07793978 0.21719144 -0.23788807 0.010992399 -0.21352123 -0.09533008 0.20412414 0.23993894 0.07984487 -0.12974577 0.0064261584 -0.4427871 0.066289455 0.04741696 0.11912624 0.11231353 -0.21450655 0.050575778 0.381128 0.23921958 -0.3047373 -0.5198163 -0.019711457 0.43745902 0.35384333 0.006291411 -0.41328606 0.15476678 0.3626668 0.048211608 0.11096886 0.41637835 -0.008974179 0.053271495 0.32678172 -0.025439389 0.20437022 -0.12941548 -0.45191517 -0.18802588
354 -0.44810903 0.037078492 -0.04660307 0.049546126 0.12670553 -0.18409666 0.25648317 -0.0026451135 -0.23210937 -0.08591953 -0.14690612 0.0039695757 -0.4836033 0.20810017 0.181875 0.1055372 0.017633064 -0.13372602 -0.6109894 0.11124222 -0.17120856 0.0926891 0.14273614 -0.13297927 -0.06775949 0.37370828 -0.41758588 -0.24059111 -0.24093284 0.021205029 0.32513934 -0.16059363 0.22079565 -0.40996101 -0.26061538 0.35673118 -0.23775032 -0.52243686 -0.0034490584 -0.4750691 0.14198947 0.04125297 -0.11612662 0.0003767366 0.34026837 -0.015219133 0.27005908 -0.1782956 0.2943616 0.35368028 0.29059455 -0.17278445 -0.22754008 0.19577457 -0.20597109 0.26981995 -0.099756196 0.25898919 -0.1657215 0.10031366 0.1306356 -0.0078658555 0.1173184 0.20722292 -0.36383605 -0.1521533 -0.2668387 0.08352916 -0.2994119 0.017758114 -0.1401826 -0.032618754 0.309762 -0.099920675 0.008937475 -0.19502601 -0.36959463 -0.13257787 -0.39536807 0.1537028 0.008820658 0.13997187 -0.1518405 0.53391534 -0.06492513 -0.060559046 0.15583809 0.09549922 -0.003816876 -0.046185233 0.20070268 0.1415111 0.041684296 -0.09746738 0.31569943 0.21566845 -0.25214928 0.069891974 -0.2234978 -0.07837322
143 -0.24221106 0.043015067 0.21575522 0.083036855 -0.26109207 -0.15026912 -0.14242364 -0.16726196 -0.0040305704 -0.3030878 -0.055522017 -0.32663393 -0.4304992 0.38336724 -0.21381934 -0.09609083 -0.09197305 -0.25320444 -0.0057008974 -0.03549974 0.28299952 0.24396424 0.37884855 0.09355124 0.037975404 -0.06362649 -0.09123605 0.046863526 0.107828446 0.45978376 0.19242248 0.025548853 0.28439572 -0.45439795 -0.16669561 0.5819058 -0.11345803 -0.40346512 -0.06070824 -0.20532493 0.053601503 -0.28935814 0.09309764 0.019392297 0.10763041 -0.24414238 0.09710177 -0.11059024 0.5988907 -0.021973357 0.1548293 0.08693627 0.00828699 -0.10042683 -0.2501598 0.60484344 -0.13031596 -0.0040348 -0.27154797 0.14057362 -0.011180226 -0.016171917 -0.08665835 -0.0593752 -0.33370948 -0.09930537 -0.0335363 0.29046598 0.0388993 0.1406356 -0.15218972 -0.11672304 0.2321937 -0.16784668 -0.15538014 0.30751202 0.13727179 -0.22041628 -0.17705016 -0.060938157 -0.2052125 0.06906862 -0.06579536 0.31639764 -0.27125654 -0.072961226 0.04373142 0.11224484 0.19315521 -0.13206089 0.23621987 -0.015496576 -0.43435413 0.32420662 -0.057001207 0.18549469 -0.13173449 -0.5525808 -0.64564884 0.040599525
271 -0.24789312 0.12205433 0.052857865 -0.16186042 -0.25961152 -0.14229943 0.095295206 0.12611929 -0.5757713 -0.19594505 -0.078400865 0.04720568 -0.37904114 0.45766976 0.2543896 -0.23112811 0.12207488 -0.337999 0.0831456 -0.32897457 -0.0069476506 0.19657895 0.2744687 -0.047963724 -0.061261885 0.14690328 -0.5748895 -0.18455893 -0.28314447 -0.033254426 0.079755224 -0.2772848 0.011410286 -0.359708 -0.10650546 0.42076704 0.014617712 -0.08335241 -0.19847214 -0.32130462 0.018863179 -0.16422859 -0.058721934 -0.089806914 0.020178769 -0.40913945 0.3190558 -0.4322792 0.08179582 0.08756053 0.081563085 -0.12521982 0.047016036 0.306123 0.17065327 0.125503 0.013493621 -0.08579902 -0.12480884 0.025474664 0.25459537 0.016746296 -0.041249838 0.13355121 -0.3897115 0.06860855 -0.06252136 -0.43342707 -0.19949643 0.3246063 0.029223548 0.14952272 0.13006583 0.18424778 0.015730187 0.15772474 -0.18368496 -0.014333615 -0.17629968 0.0290941 -0.30804536 0.09462266 -0.028715683 0.38462603 0.36936066 0.102080494 -0.0497514 0.19314873 -0.1029929 -0.052379206 0.31021056 0.30733794 -0.36314824 -0.26181123 -0.06271977 0.5893728 -0.35231733 -0.115117066 0.17309241 -0.20859288
386 -0.25034738 0.018733071 0.09320831 0.027176186 0.1333014 -0.15572914 -0.02538538 -0.047512595 -0.42449352 -0.15292883 -0.31668514 0.07885805 -0.39376336 0.083972625 0.26171252 -0.28549737 -0.41850275 -0.3333155 -0.30913252 -0.007204495 0.101936385 0.03621418 0.28718954 -0.2418191 0.19782403 0.107854754 0.08106248 -0.07464649 -0.24686602 0.16485816 0.329974 0.0826205 -0.09802264 -0.5049477 -0.0427812 0.08444973 0.012816476 0.023240665 -0.01920839 -0.3022781 0.20638788 0.0013200775 -0.2070195 -0.37010005 0.19775201 -0.09231323 0.27746654 0.023832077 0.3068166 0.06808834 -0.07690251 -0.30448532 0.17408192 0.03775981 -0.08831523 0.27880406 0.036645427 -0.041276526 -0.036479037 -0.024970703 0.23509681 0.16177733 -0.16875336 -0.113432914 -0.36617228 -0.10938866 -0.34210458 0.11007815 -0.1289952 -0.083891705 -0.22587433 0.13257861 0.2651362 0.07833196 0.18583356 -0.3308632 0.051982675 -0.035616867 0.057306163 0.07056193 -0.16957101 0.16683204 -0.40902776 0.41530362 0.096756406 0.057812262 -0.08789494 0.2769288 0.061304275 -0.044758767 0.58951306 0.018451963 0.10264898 0.105919845 0.16086511 0.6571674 -0.051013567 -0.30914745 -0.47657147 -0.28385416
148 0.09498825 0.2907044 -0.18998969 0.022423293 0.21583647 0.05250301 -0.22696048 0.33977032 0.20691445 -0.24523334 0.3359063 -0.05629087 0.183124 -0.26472646 -0.0098161185 -0.051520664 0.328852 -0.21375778 -0.06862066 -0.2871726 -0.040537212 0.14067389 -0.045557167 0.13339487 -0.23404562 -0.1365891 0.18154094 0.11192585 -0.29852745 -0.3130469 -0.12837167 0.36876783 -0.25987336 -0.07750325 0.08877944 0.2630229 0.08497871 -0.21420722 -0.23150128 -0.20467146 -0.010298214 -0.24332944 0.32964537 0.1411441 0.04036561 -0.22240418 -0.51461357 -0.20536654 -0.056590855 0.19369118 0.09507247 0.3119052 -0.13253328 -0.04862846 -0.15778244 -0.14287367 0.31991506 0.08655444 -0.41978732 0.02656848 0.2611496 -0.2263919 0.023014361 -0.21698622 -0.38676047 0.03764822 0.20343265 -0.20470311 -0.529116 0.079711445 0.14237322 -0.29625395 0.12806652 0.17391276 0.12285497 0.34626073 0.19687411 -0.41006532 -0.44502708 0.1186183 0.103577405 0.17407541 -0.15237154 -0.13599649 -0.39559048 -0.02448784 -0.058045264 0.60605323 0.018801209 -0.10503331 0.19561882 0.19228634 0.21219192 -0.12374323 0.29541126 0.33376807 -0.019010883 -0.39381346 0.08201729 0.15447782
72 -0.09073772 0.010384115 -0.084838435 0.0011108601 0.12925497 -0.39798164 -0.0033614049 0.096102364 0.14517075 0.26756507 0.07743988 0.30967572 -0.22516857 0.004115769 0.046145197 -0.18410312 -0.0015394721 0.099080384 -0.1493466 -0.26590234 0.061920173 -0.3465879 0.040470343 -0.37941867 -0.2706066 0.1766852 0.30099288 -0.44322723 0.1313165 0.33326638 0.5508191 -0.2385819 0.13751994 0.40644366 -0.17480236 0.1393643 0.14385886 -0.36662614 0.05916619 -0.5068495 0.21156436 -0.07186922 0.418085 0.07018678 0.33435166 -0.32864273 -0.26208818 0.030368783 -0.06489959 0.08153675 0.16102992 -0.11589871 0.48917773 0.13150057 -0.3348016 0.3923569 0.13158971 0.18641655 -0.29588142 0.19992408 0.057300985 0.053291075 0.047880203 -0.42349398 -0.0028385927 0.11162109 -0.15158166 -0.22607379 -0.36186314 -0.36152324 -0.25648198 -0.046701733 -0.020120075 0.08966233 -0.020545626 0.12041603 0.41933495 -0.12624134 0.12361652 -0.020903632 -0.063688934 0.44698742 -0.20805545 0.3559644 0.14473061 -0.22903313 -0.115292154 0.0069830874 0.36941501 -0.26726726 -0.14687347 -0.028465142 -0.0146690775 -0.22935076 0.058173303 0.12536368 -0.1003768 -0.45862144 -0.15606767 -0.30939677
160 0.28087655 0.14787968 0.08858397 0.069759004 -0.08268203 -0.26208106 0.11287242 0.5146847 0.16103159 -0.015203607 -0.08408342 -0.30223206 -0.14078735 0.1313074 -0.15358551 0.0894278 0.06799281 0.12977153 0.10759461 -0.55162865 0.17916867 0.18371478 -0.09351966 0.038460333 0.044194255 -0.32504746 0.15214427 -0.049805745 0.03166068 -0.0001475931 0.0275606 0.53789234 0.49245486 0.0691293 -0.17647555 -5.8536007e-05 0.057337143 -0.407385 -0.16280866 -0.33191973 0.1819987 -0.16690212 -0.0018283536 0.010979944 0.25903568 -0.21558397 -0.37470475 -0.3926812 -0.18731652 0.10188553 0.27719632 0.110133566 -0.36228833 0.31353682 0.023548601 0.052081995 0.02707523 -0.2071034 -0.13776495 0.030155012 0.17447293 -0.04725871 0.58638257 -0.025016664 -0.3247556 0.16378154 0.30958068 0.1736658 0.0793308 -0.0023237665 0.19222869 -0.16814688 0.21457294 0.41854712 0.022076681 -0.050717883 0.2240164 -0.12555164 -0.40461132 -0.0678857 -0.15871437 0.076676585 0.10504795 -0.13501474 -0.18602139 0.19524729 0.054386336 0.3266313 0.5768439 -0.1887783 0.09014412 0.038175825 -0.0639016 0.11230164 0.40891618 0.16099736 0.010298992 -0.4781839 0.31442076 -0.0032779754
126 -0.05073505 0.2116409 0.00870628 0.12343691 -0.49824953 0.07123981 -0.10808829 0.48029128 -0.026198598 0.0900869 0.099673815 -0.016592378 0.36792657 -0.24822553 -0.3546189 0.06867711 0.20836383 -0.10423761 0.15287952 -0.35638183 -0.066520214 0.1870347 -0.11548641 0.024147121 0.15744527 -0.064958915 0.08040866 -0.053766217 0.037999686 -0.14681041 0.3448226 0.4247018 -0.016081765 0.145752 0.010744056 0.3382568 -0.11804431 -0.2157607 -0.056564257 -0.30335018 -0.03866683 -0.3899722 -0.02453561 -0.059017733 0.2195595 -0.12288713 -0.3696154 -0.333093 -0.12650831 -0.087353274 -0.15096073 0.1649718 -0.28518552 0.05474405 -0.3252559 -0.28472808 -0.19204488 -0.06021207 -0.17824796 -0.35813096 0.74895114 -0.04629655 0.1627626 -0.37381455 -0.17057845 0.240935 0.31238285 0.17763594 -0.2849737 0.02811566 -0.15947728 0.2026618 -0.06954929 0.22957149 0.56388974 0.107540935 -0.05615303 -0.12722997 -0.34392473 0.18561248 0.12489253 -0.24603157 -0.17838699 0.22010526 -0.32628956 -0.09826928 -0.08810405 0.044684544 0.030395757 -0.1739308 0.16491276 0.2206921 0.108197354 -0.16803934 0.48935917 -0.036648232 -0.05019327 -0.24719757 -0.053072374 -0.34816256
423 0.08544749 0.23381706 -0.0680254 -0.097737156 -0.052692138 -0.27757305 0.0540135 0.5997741 0.023585213 -0.1760084 0.043786123 0.060843933 0.27938592 0.2628983 0.0047320803 -0.39258137 -0.38548094 -0.15630206 0.291542 -0.10541007 0.23727597 0.012600049 0.1887457 0.120954424 -0.22355594 -0.3269226 -0.22276242 0.081061065 -0.13107038 -0.16218014 -0.18787089 -0.27967015 0.4798558 0.010898833 -0.04058606 0.45749718 -0.1312731 -0.26133993 -0.35532686 -0.2537195 -0.20037672 -0.20692424 -0.078654066 0.10115526 -0.08032289 -0.43583947 0.10248232 0.07380669 -0.20464101 -0.14834757 0.14617617 -0.060491554 0.17636004 -0.1934645 0.081752606 -0.13561395 -0.23713167 -0.2840884 -0.17831196 -0.013376281 0.27516258 0.23915671 0.100143656 0.054810733 -0.44622353 0.100068495 0.81617576 0.19232355 -0.5720847 0.062736966 -0.28781343 -0.13539304 0.20909883 -0.180807 0.31967124 -0.0019911283 0.11645095 -0.31132933 0.13128878 -0.10650058 -0.34648994 0.3100855 -0.29614818 -0.069367245 0.1682616 0.10132063 -0.029427491 0.076058395 -0.05483047 -0.28734595 0.47823092 0.12945695 -0.011114541 -0.10010792 0.04918859 0.013518598 0.17140207 -0.3945231 0.28363606 -0.2605152
421 -0.10227198 0.38649914 -0.2997216 -0.12010276 0.2253103 -0.10915917 0.107113995 0.27978992 0.10415167 0.06773266 -0.22214493 -0.11232572 0.49195477 -0.4728017 -0.2158167 -0.31382456 -0.3156911 -0.37643933 0.05523455 -0.33230308 0.081061386 -0.092134245 -0.41447484 0.0308551 0.03808029 -0.59199274 -0.21384738 -0.37816447 -0.27229086 -0.42703962 0.26178643 0.1845962 -0.20269085 0.20441198 0.021581488 -0.03430024 -0.20124485 -0.3398789 0.24885973 -0.49324015 0.11974132 0.2683876 -0.11981114 -0.047068365 0.20187451 0.10546661 0.14801072 0.15991566 -0.0037955856 -0.04018564 0.38339436 -0.033386774 0.15723296 -0.08859855 -0.112734474 -0.0658107 -0.0002822059 -0.11346002 -0.26718152 0.0028169756 -0.059213217 0.2337471 -0.053391933 -0.2373706 0.20916288 -0.051355317 -0.28522912 -0.17440593 -0.25211674 0.14671515 0.3888311 0.031737138 0.54899514 0.11855736 0.15386313 -0.03437923 0.20043692 0.08891163 -0.046371065 0.1206636 -0.33614066 -0.035579447 0.057567347 0.13019961 -0.31707498 0.1646186 -0.17164446 0.38384873 0.40710756 0.029560262 0.0949539 0.4177125 0.09597513 0.3245899 0.46852586 0.3131859 0.096444175 -0.20301571 0.21831258 0.10173493
155 0.16014512 0.110593125 0.019045342 -0.358381 0.0029133381 -0.12642255 0.044618245 0.3327819 -0.22390388 0.24657904 -0.15339082 -0.18172608 0.02969458 -0.33247143 -0.17147283 -0.10620685 -0.2400508 -0.35475203 0.35558516 -0.42082614 -0.029752864 0.19180286 0.22215478 -0.023638522 0.015440749 0.30238038 0.008639379 0.21934031 -0.2669385 -0.08384688 0.023168884 0.37636253 -0.19720803 0.0052968087 -0.07805344 -0.0048201145 0.29048172 -0.22485107 0.0319787 -0.14007056 0.17102341 -0.30764958 -0.009624058 -0.05771148 -0.03298426 -0.54647064 -0.41696614 -0.31112927 -0.33649874 -0.07440125 -0.05551059 0.23008567 0.23509617 0.045031946 -0.1307787 -0.26390785 0.38834095 0.35247892 -0.22771537 0.04232303 0.3988539 0.08847901 0.10188186 -0.018303325 -0.11864187 0.4851776 0.28461954 0.15128309 -0.5531339 -0.11723326 -0.33045274 -0.051539782 0.089586936 0.0020842499 0.22496015 -0.09174933 0.13133982 -0.03132397 -0.45875677 -0.11170125 -0.14136873 -0.081253394 -0.1627123 0.08838694 -0.12760001 0.2295686 0.24022311 0.45262283 0.2869053 -0.14519943 0.049427558 0.29622278 -0.19940625 0.010179068 0.14294888 0.13477686 -0.0010357865 -0.07479747 0.30579337 -0.08093682
324 -0.15143952 -0.16473472 0.09120494 0.15076023 0.08004717 -0.18069994 0.05410513 0.04985879 -0.050580557 0.0027608068 -0.3716474 -0.051214814 -0.33299118 0.29544106 0.31387043 -0.23190139 -0.07196712 0.0119386725 -0.20784587 -0.38085514 0.15596455 0.3507231 0.38572758 -0.32252094 -0.11100046 -0.07765583 -0.37892145 0.24049507 -0.3350557 0.15040521 0.36508468 0.11664589 -0.038541596 -0.2649845 -0.13732752 0.12652412 0.033144157 0.06833484 -0.30641717 -0.14488702 0.21155249 0.04273324 -0.020307116 -0.28589267 0.08845802 0.17922485 0.037800964 -0.2509901 0.13897312 0.44507444 0.19869207 -0.20453209 0.025582813 0.060755134 0.0095879715 0.19095828 -0.081510276 0.23616612 -0.26254734 0.10855387 0.3328047 0.16415711 0.28048196 0.18912947 -0.27168205 -0.5604435 0.028253471 0.04312127 -0.20634414 0.11872043 -0.61531323 0.059023228 0.21573788 0.13421895 -0.112343 0.21047427 -0.092658915 -0.058509294 -0.53337234 0.03700818 0.13060462 -0.05619865 -0.11784494 0.6248206 0.11157774 -0.12598488 -0.12724687 0.008952633 0.09882807 -0.0075497935 0.25444332 0.08993248 -0.32830065 0.2413081 0.21242324 0.28768218 -0.19151211 -0.14848424 -0.2718499 0.124220446
417 -0.21161237 -0.0727219 -0.09483631 -0.1273017 -0.15471676 -0.2685232 -0.09946289 0.14774972 0.21231817 -0.08160542 -0.034362946 -0.15985033 -0.22067189 -0.18629129 0.17396443 -0.1283006 -0.25057426 -0.47034243 -0.455395 0.0036478422 0.20092493 0.1241255 0.5677489 -0.03799715 -0.042989407 0.23163396 -0.44955015 -0.29320663 -0.051531844 0.044711515 0.31416395 0.12626296 -0.15467095 -0.38836643 0.101545356 0.15025835 -0.22417626 -0.2598458 -0.118839934 -0.30482548 -0.36018035 -0.13777724 0.038590148 -0.19332795 0.24117175 0.29752123 -0.10787669 -0.13099241 0.2918793 0.26755893 0.36042506 -0.3387863 -0.2521021 -0.12050705 -0.015655363 0.10025804 0.17391406 -0.201218 -0.009601074 0.2970032 -0.043620683 0.03744041 0.3413575 -0.45900276 0.20424443 -0.09589679 -0.08366298 0.34564006 -0.048487227 -0.0105706705 -0.10770957 -0.33703148 0.09358618 -0.037095606 -0.08197235 0.017167358 -0.022905288 -0.12498936 0.15978678 0.25686234 -0.12879199 0.09956399 0.08192999 0.15695837 -0.22137442 -0.20215657 -0.07070862 0.17511012 0.06988394 0.6533948 0.74887055 -0.16918081 -0.06363394 -0.1298413 0.33091927 0.42191496 -0.09946537 0.110615164 -0.18393186 -0.34859747
171 0.15001673 -0.025030948 -0.11535678 -0.3196122 -0.21211112 -0.5535754 0.2437835 0.6696797 -0.33933058 -0.006305253 0.059648592 0.24821694 0.29867294 0.16578794 -0.2933662 -0.006292928 -0.28301337 -0.14237027 -0.21688221 -0.13698292 0.14677212 -0.24152094 -0.01365371 -0.080944225 -0.0925648 0.088316664 -0.112573065 -0.019346628 -0.31832698 -0.06440362 0.4114176 0.51808935 0.39949855 0.107215874 -0.038562633 0.5162481 -0.11758728 0.047456037 -0.031933665 -0.19600748 0.23750326 0.015591678 0.051182836 0.030477103 0.00743937 -0.010072251 0.038583897 -0.17138456 0.088705555 0.1967858 0.20624124 0.18895482 -0.12681238 -0.37408888 0.047392707 -0.28131926 -0.030093923 0.1701143 -0.013200771 0.62180007 0.079322636 -0.29665992 -0.02174594 -0.11554341 -0.4503186 0.11347492 0.116022 0.1574839 -0.41190508 0.49171856 -0.11346005 -0.29880244 -0.07892677 0.23964365 0.4186559 0.048813283 -0.007940943 -0.3197471 0.11746977 0.313363 0.27738836 0.25881088 -0.43264997 -0.0044282954 -0.5656982 0.28722176 0.16258153 -0.07429057 0.1700503 0.07667534 -0.123528264 -0.019501882 0.22715934 0.39073312 0.11297363 0.18252471 -0.122300096 0.021761063 0.10166189 -0.09173218
149 0.102037646 0.09533041 0.3412095 0.13519739 0.136339 -0.28536072 -0.27456063 0.57216066 0.050889965 0.019463187 -0.2554482 0.2025517 0.036063507 -0.2014402 0.21538912 0.3208712 -0.01753043 -0.053783014 0.24029817 -0.82169276 0.013737198 -0.21043131 0.06621783 0.10451529 -0.051917423 -0.31150514 -0.25524452 0.017207565 0.07919038 -0.045613732 0.02515929 0.04744261 0.10188277 0.2720009 0.09549407 0.46405712 0.0011815166 0.06718865 0.21806431 -0.41162753 -0.07380385 0.03934724 0.23894708 0.22678833 0.27290815 -0.2909131 -0.12892509 -0.1486962 0.08403063 0.16887164 0.38393822 0.28000507 -0.1958844 0.15594015 -0.19997768 -0.31440777 0.36299914 -0.20223412 -0.037388254 -0.26261255 0.060449053 0.3643933 0.034933913 -0.06856225 -0.35300076 0.3694989 0.27531216 0.5921982 -0.1505003 0.08714153 0.0021706803 -0.42845583 -0.08724705 0.14276704 0.18376656 -0.2318501 -0.32681647 -0.050993912 0.20799771 0.3114935 -0.23922782 0.124617845 -0.24903442 0.35643238 0.03788038 -0.014056527 -0.021393334 0.109414235 0.40386474 -0.1400789 0.13077316 0.031197678 -0.023224756 -0.06414161 0.46798098 0.31900972 0.14363548 -0.25266963 -0.012515376 0.021655936
119 0.52974105 0.058314268 0.09524298 -0.011658519 -0.21630095 -0.5154039 0.22788516 0.51212573 0.1331917 0.56529146 -0.025159273 0.0153038 0.41991085 -0.03318412 -0.042137746 -0.38819763 0.14946581 0.010742159 -0.12684204 -0.36948898 0.10447945 0.22792412 0.096362196 0.10437304 -0.07335223 0.18481988 -0.056935407 0.062081415 0.21243358 0.022135636 -0.21874733 0.2910376 0.17111467 0.0024232604 0.026142672 -0.25694034 0.20933735 -0.38729295 0.102843 -0.3795985 -0.0891675 -0.19257283 -0.004146455 -0.09233828 -0.009134829 -0.042455938 -0.36695305 -0.15631767 -0.045335095 -0.13092965 0.39158478 0.057300493 0.02951515 -0.28708553 -0.21514748 0.048205957 0.24837688 -0.32404006 -0.13297272 0.05295018 0.14977877 -0.120313734 0.041896224 0.31165847 -0.43205395 0.16270377 0.5158469 0.010452658 -0.28865743 0.3275686 -0.14110579 -0.14865635 0.43284366 0.0750737 0.20478138 0.03487279 0.59443283 -0.20885712 -0.17049085 0.060380135 0.2854217 0.25953907 -0.1618994 -0.07507742 -0.45818928 -0.2455547 0.18988337 -0.11505192 -0.045621917 -0.121148154 0.45043468 0.23891115 0.08977209 -0.08836586 0.4619142 -0.16790141 -0.06442634 -0.16423216 0.060080044 -0.44721192
139 0.09377642 0.16109644 0.28190163 0.3882351 0.18254405 -0.39927703 0.17731273 0.41600287 0.2032646 -0.28325012 0.10740158 -0.11560752 -0.0043990333 -0.33436757 0.384518 0.013067484 0.00085747 -0.37777144 -0.09997385 -0.21791378 -0.10698211 -0.12816146 -0.1507035 0.012634129 0.11785947 -0.017127384 -0.20108406 0.0012089831 0.008526963 -0.052474413 0.39577565 0.16405746 0.09513688 0.47177005 0.10236272 0.16857874 0.29441506 -0.38587534 -0.28217834 -0.34870595 0.09783586 -0.14356714 -0.13563868 -0.03550957 0.15976924 -0.20332518 -0.29701015 -0.020081002 -0.10859539 -0.5084007 0.049975544 0.5093459 -0.26135287 0.11158545 -0.3852 0.09085101 0.08781744 -0.09994087 -0.101230875 -0.33555362 0.42196798 -0.060076024 -0.06292149 -0.025515227 -0.31637797 0.30869424 0.15347476 0.027070211 -0.35621986 -0.245299 0.0745763 -0.043749616 0.26638743 0.29200357 0.31383508 0.42972586 -0.01613953 -0.07239815 0.2637998 -0.13219956 0.1808223 0.4488955 -0.23053017 0.5362619 -0.5113771 0.21022141 0.105028585 0.030653806 -0.12370203 -0.16148862 -0.0055063404 0.3157824 0.027695969 0.54345924 0.23637272 0.22368823 0.21971048 -0.0039716377 0.59643054 -0.18657227
439 0.25433537 -0.004407645 0.17289597 -0.07765066 -0.41296023 -0.14377844 0.2460048 0.5094129 0.21192223 -0.026837174 0.09970732 0.22204147 -0.045803145 -0.38286674 -0.18349873 -0.23746121 -0.010206283 -0.23163545 0.110119455 -0.3841697 -0.060357515 0.10018434 -0.12541091 0.43155262 -0.19277436 -0.37384042 0.17789683 0.019164827 -0.21363685 0.082227826 -0.121306404 0.35743415 -0.15635754 0.121775344 0.34248173 0.16500683 -0.04527319 -0.6833739 0.04223274 0.1348363 0.01681737 -0.00017226988 -0.38751996 -0.21224804 0.6308321 -0.2011425 -0.051033996 0.16446844 0.11144216 -0.22225057 0.35717636 0.011346766 -0.13370772 0.11253708 -0.39672673 -0.06893852 0.15467189 -0.034063708 -0.029600792 0.12004136 -0.16005309 0.26095983 0.2378084 -0.10173726 -0.04521028 0.40031826 -0.025465854 0.23629117 -0.32144558 -0.1495109 -0.27466682 0.0006435948 0.32940757 -0.023875594 0.03402359 0.5278977 0.43950713 -0.25019795 0.2732394 -0.21001473 -0.16032386 -0.0072691482 -0.24984817 -0.14355116 -0.09726062 -0.2010845 -0.06836479 -0.17129001 0.19390748 -0.004001419 0.859515 0.076062806 0.26688153 0.2305389 0.2273313 0.09785149 0.07885877 -0.31411538 0.17358562 -0.12954253
263 0.1301365 -0.08564455 -0.14963892 -0.11812761 0.06786779 -0.251216 -0.21189557 0.38230732 -0.1199786 -0.24184589 -0.16746826 -0.13796379 0.009729428 0.09559886 -0.17714904 0.051366538 -0.3151023 -0.035840396 0.38610107 -0.38663727 0.01674235 -0.3521242 0.26685193 -0.30364707 -0.24820651 0.051870354 0.13119468 -0.041760694 -0.003950322 -0.17463014 -0.33634984 0.18149371 0.20367374 0.119651556 0.0058082864 0.04828778 0.25247622 0.19687805 -0.1641848 -0.290546 -0.20864491 0.007463996 0.0025159342 0.09850392 -0.27315208 -0.07912106 0.104348935 -0.06957653 0.16167486 -0.12652977 0.08036276 -0.118597396 0.07072744 -0.20131868 -0.13384944 0.12843911 0.25031015 -0.17729153 -0.08281649 0.36214256 0.12266045 -0.2000971 -0.11737945 0.065005355 -0.60230565 0.2366963 0.34579235 0.10841953 -0.20700677 0.0031921288 0.08983215 -0.36605802 0.2633781 0.19000468 0.37150177 0.21843621 0.25360444 0.112647355 -0.21356368 -0.10618517 -0.093427055 0.22271103 -0.25159574 -0.06195807 -0.4380761 0.39841592 0.16464786 0.4390157 0.45920348 -0.10922739 0.3456014 0.33911613 0.038929895 -0.0017139731 0.36853355 0.3203682 0.18979271 -0.3265082 0.23449242 -0.20541766
400 0.22076844 0.06426398 -0.30935895 -0.29659626 0.17110045 -0.48182136 0.023457818 0.78905344 0.09711019 -0.1211515 0.13891327 -0.30232933 0.13524602 -0.100831255 -0.32968754 -0.13589662 0.07681991 -0.07453179 0.20767216 -0.27232882 0.3770549 -0.2051175 -0.15576391 -0.25472596 -0.30190554 0.08046578 -0.061881766 0.20300074 0.050991703 0.12313298 -0.1185997 0.41941977 0.08433973 0.17790638 0.16448504 0.15734108 0.14591327 -0.32644948 -0.25287408 -0.26886332 -0.054452296 -0.23460755 -0.023751825 -0.022824654 0.25001323 -0.038535494 -0.23284945 -0.44437784 0.052810613 -0.30164963 -0.022794398 -0.05990926 -0.054311886 -0.08299756 0.1595968 -0.47049424 0.51444364 0.009934938 -0.20918466 0.35596204 0.24407099 0.09912484 -0.24493213 -0.41466928 -0.037107456 0.06790301 0.34878233 0.04916835 -0.31950614 0.2552052 -0.021346623 0.05448731 -0.12636392 -0.2765424 0.3329888 -0.09461194 0.19012222 0.122057 -0.14591753 0.16545203 -0.08169028 0.16848952 0.20530036 0.3562717 -0.2011868 -0.1318734 0.0025008996 0.1939061 -0.1633025 -0.1548948 0.33902255 0.3468357 -0.030207667 0.032301147 0.3156258 0.09398652 0.22687687 -0.29717964 0.047620147 0.28286695
346 -0.46923953 0.50146717 -0.055508953 -0.38523182 0.1479886 -0.091860786 0.012812234 0.5693947 -0.15885487 0.17071372 0.21385635 -0.1867482 0.04402901 -0.2624569 -0.040990636 0.086594 -0.061169337 -0.3272134 0.1262291 -0.15695444 -0.17900504 0.16415945 0.03568872 0.17998387 -0.438554 0.019233096 0.40676504 0.2465494 -0.11403479 -0.3108662 0.27430156 0.21427369 -0.22695068 0.17264272 0.22667222 -0.20389739 -0.14722012 -0.22603431 -0.17905447 -0.4547027 -0.044148266 -0.083584614 0.16288386 0.25730875 -0.059137996 -0.06614819 -0.24796528 -0.026575314 0.10071728 0.02119601 0.16344632 -0.26823327 -0.1745188 -0.19501767 -0.083792 -0.26105252 0.054237682 -0.06745884 -0.24865879 -0.08049623 -0.07541678 -0.023213992 -0.31253222 0.062062986 -0.69992274 0.2742198 0.42513427 0.11384041 -0.13671651 0.21865676 0.27906063 0.226587 0.1861138 -0.27652818 0.27705875 0.36565194 0.32096234 -0.05151961 -0.08833352 0.17603502 0.35758764 -0.17435817 -0.11172478 0.26895565 -0.017045181 0.00089920807 0.12536468 0.22748312 0.16106004 -0.05952317 0.33545947 0.02633733 -0.2674859 0.16794515 0.2633917 0.51768404 -0.004863704 -0.16695957 0.3406585 0.20202756
383 -0.12006173 0.20690739 0.31066912 0.19503538 -0.076513514 -0.36157703 -0.004917971 -0.0550569 -0.13305628 0.04724108 -0.18617538 -0.22107878 -0.6588392 0.107302845 -0.0015901253 -0.63219124 0.085522614 -0.2273499 -0.4471801 -0.24665403 -0.14117351 0.07152366 0.35879612 -0.34844857 0.12197788 -0.3972053 -0.14732076 -0.00856013 0.092377864 0.38158134 -0.20538399 0.25042215 -0.2109087 -0.23413323 -0.49771535 0.14260358 -0.14365584 -0.4460021 0.03145065 -0.21305782 -0.035961743 -0.11719689 0.12863538 -0.022647845 0.010760935 0.08332236 -0.20782654 0.28344664 0.30751753 -0.0096398825 0.38714054 -0.2560957 -0.06415552 -0.008748871 -0.3463687 0.17009254 0.34498128 0.25341737 -0.29773387 -0.0057358844 -0.09962096 0.1377322 -0.18790655 -0.06442152 0.2502803 -0.15206476 -0.09758611 0.41956994 -0.08046428 -0.058249287 -0.14765751 -0.26720294 0.3965747 -0.243253 0.09774747 -0.10019497 -0.32856217 -0.44309232 -0.3213555 -0.1694478 -0.100903235 -0.30895978 -0.18096241 0.6102408 -0.16468886 0.09392437 -0.19306092 -0.081106536 0.40109137 0.4222691 0.057112087 0.28284854 0.11688349 0.080328 0.20221648 0.2074082 -0.2548565 0.27626535 -0.21621901 0.009921075
136 -0.15427795 -0.41458943 0.30722177 0.08848529 0.20792824 -0.23557426 0.28802922 0.16886435 0.09332473 0.07050414 -0.09206969 -0.5884777 -0.14934997 -0.20817111 -0.11561075 -0.07824128 0.041971505 -0.32455823 0.19969018 -0.53420585 0.33215356 0.22735532 0.08224484 0.050241962 0.0701538 -0.2948564 0.009350197 -0.31741253 -0.0103761675 -0.5304282 0.26943028 0.28580752 0.23744702 -0.35273644 -0.239046 -0.14413926 -0.08960268 -0.17850392 -0.21957733 -0.15021054 0.19852084 -0.2826233 0.08312658 0.16044436 0.08391184 -0.022412665 -0.40992457 -0.15572765 -0.5946076 0.25308475 -0.043509364 0.043956816 -0.16670406 -0.22238186 -0.0898025 -0.068628 0.20511577 0.014821339 -0.21917379 0.36366588 -0.0933881 0.115417875 0.03236823 -0.23893325 -0.17418134 -0.12864491 0.75977707 0.56259793 0.31762344 -0.09043889 0.32311955 0.21196356 0.14162455 -0.16544186 0.4113812 0.109352306 -0.009402596 -0.051373944 0.15826076 -0.31231388 0.037060075 0.17007004 -0.11829114 0.17899181 -0.3668046 -0.09466315 -0.052494854 0.70869774 0.15843797 -0.1603328 0.4969266 -0.16361086 0.28030536 0.026250085 -0.018448211 0.09016473 0.23809859 -0.43050444 0.16276285 -0.24057558
305 0.11871347 -0.14742859 0.11597247 -0.37731814 -0.35303193 -0.34359658 -0.041567888 0.26556882 0.23720424 0.19614625 0.051499255 -0.018426161 0.07388148 -0.21077962 -0.0252712 0.11222099 -0.5466381 -0.064489536 0.16713658 -0.41310722 -0.041482363 0.08044964 0.021906016 0.22620636 -0.13295595 0.20805737 0.49534857 0.04427534 -0.28237045 -0.04368459 0.16105036 0.055352706 -0.10020596 -0.044187088 0.09077405 0.09216132 0.036461994 -0.06777693 -0.0969109 -0.6305988 -0.07181922 -0.3559324 0.04762132 0.11805369 -0.06763049 -0.16720587 -0.10989499 0.27440822 0.039651375 -0.39546686 0.13001704 0.33892465 -0.26535475 -0.29407656 0.12326044 0.23369007 0.4293732 -0.26800102 0.024839876 0.14206672 -0.28427783 -0.039925806 -0.012935189 0.1357924 -0.60199285 0.32572618 0.4219991 0.36045468 -0.36710298 0.19764313 -0.1667316 -0.16239941 0.35923934 -0.1558243 0.55630267 -0.0042069154 0.3902946 0.08902458 -0.09057541 -0.53980917 0.119812116 0.31293458 -0.3831607 0.47339097 -0.14517994 0.065836936 0.06442174 0.14029121 -0.17315187 -0.17829739 0.11569398 0.43507695 -0.25050685 0.16725628 0.18496056 0.2187042 0.17077771 -0.20811354 -0.07092308 0.13449857
54 0.100668535 0.4290296 -0.14083906 -0.052890312 -0.32486296 0.26752502 0.24467926 0.28992274 -0.2317561 0.4694861 0.16726552 0.06042149 -0.14243875 -0.34564048 -0.09017067 -0.23688084 0.015322622 -0.3473121 -0.1473383 -0.6142842 -0.06078395 -0.07174912 -0.24392553 -0.084196635 0.08360602 0.074739024 -0.19995765 -0.08925275 0.022941785 0.6440793 0.108061984 0.21065222 0.3907079 0.44470668 -0.0872239 0.2304807 0.49819386 -0.16976914 0.11478555 -0.41340572 -0.31947467 -0.40836355 -0.15222083 0.064450525 -0.04625774 -0.4196137 0.011592933 0.09598294 -0.089890085 0.20548514 -0.28216666 -0.03592966 0.5096602 0.18026397 -0.17598984 0.2590013 -0.14527959 0.07493827 -0.3491048 -0.07373511 0.17253464 0.05708477 0.31330028 0.11604271 -0.22957084 0.42628708 0.28437394 0.11799518 -0.4428977 0.1109774 -0.2330162 0.4115267 -0.12113263 -0.06519829 -0.011759304 0.015815375 -0.25441688 0.21660744 0.23902734 -0.06531288 -0.022710906 0.069732554 -0.24307294 0.36718914 0.06993162 -0.082542256 0.25176004 0.4922808 0.108079895 0.13641937 0.17080787 0.33989438 0.13560896 -0.14951187 0.08895926 0.21584038 0.053525083 0.17620865 0.27144945 -0.026584825
197 0.2573771 -0.042181738 -0.21015346 -0.30401826 0.18607698 -0.7241144 0.19060384 0.59881544 0.012842629 -0.08463044 -0.07012045 -0.09404751 0.08691666 -0.06731351 -0.29153678 -0.10618718 0.029367667 -0.19277585 0.07175792 -0.36329606 0.14791773 0.095485464 -0.0871583 -0.19576986 -0.3942123 -0.043671306 0.037729938 0.0690919 -0.12642258 -0.17505227 0.21469052 0.2066592 -0.2512935 0.23475964 -0.008722849 -0.037263088 -0.053206008 -0.15906735 0.012767317 -0.3322662 -0.019061266 -0.39093727 -0.23794262 -0.06650777 0.29020736 0.23701018 -0.54505515 -0.5322454 -0.057185777 -0.08621176 -0.031944126 0.44701177 -0.052327763 -0.104804434 -0.6308947 -0.14263034 0.41619986 -0.25916708 -0.19449072 0.092614844 0.14591904 0.060382295 0.24979104 -0.26839513 -0.548705 -0.06001681 0.6251064 0.10862247 -0.07429118 0.029333396 -0.019433482 0.3262365 -0.064911686 0.08951917 0.08916891 0.16027053 0.29655936 0.115222156 -0.33956322 0.19774726 0.16524763 0.044633735 -0.106096454 -0.12564333 -0.071379155 -0.29860973 -0.00095641427 0.2009922 -0.4666616 -0.26339138 -0.033876523 0.2467121 0.028714519 -0.035129867 0.211331 0.2632901 0.3072658 -0.31230158 0.073648274 0.27480832
301 -0.23247427 0.29700732 0.22454447 -0.05460846 0.037603293 -0.08532563 0.17826115 0.15217048 -0.21610555 -0.1864168 0.22749339 -0.18790933 -0.36336946 -0.2145943 0.4111464 -0.47997418 0.1394448 -0.12721504 -0.0025585582 -0.0712556 -0.024327805 0.32682168 0.06675809 -0.15138784 0.12270647 -0.070947774 -0.19800659 -0.4823117 -0.29077026 0.016913317 0.22079203 -0.010296302 0.07543671 -0.41190788 -0.33583158 0.05530169 -0.3463805 -0.14010836 0.036040585 -0.2718936 0.31496167 -0.37107474 -0.05641167 -0.3335257 0.27705348 0.113331325 0.22686516 0.0026783813 0.32322386 -0.035704687 0.027651729 -0.27071702 -0.11327599 0.5919461 0.06531167 0.39038545 0.0748987 0.119833425 0.017032608 0.16382363 0.21412313 0.07438545 -0.23960799 -0.14364475 -0.24262968 -0.17884015 0.119808175 0.04032677 -0.08232863 0.15002704 -0.32959136 -0.15671942 0.08543589 0.14359167 0.1277369 0.022272857 -0.13384171 -0.05708788 -0.11137495 -0.07344594 -0.112597235 -0.25982308 -0.19654466 0.6379951 -0.15824796 0.070959054 -0.25851452 0.13936146 0.011219247 0.0847757 0.084480815 -0.26777112 -0.2213547 -0.015587159 -0.009506113 0.7791727 0.16470064 0.018836243 -0.425123 0.15382172
370 -0.27979103 0.12726116 0.14420688 0.20571417 -0.055988416 -0.51034224 -0.037827894 0.3065505 -0.1286612 -0.09372587 0.05560074 -0.53105825 -0.1121422 0.2233469 0.24384455 -0.034226548 -0.027659327 -0.01076653 -0.041653614 -0.060654078 0.08158395 0.097557664 0.07646841 0.07384684 0.15094319 0.11602886 -0.1003705 -0.3781334 -0.6030495 0.17664705 0.19865057 -0.023264613 -0.2970878 -0.34345782 -0.28873807 0.3897841 -0.27920142 -0.123425685 -0.26646996 -0.5995167 0.0021511095 0.2686918 -0.07641799 0.05190036 0.12562345 -0.12178019 0.5908028 -0.120065026 0.07080745 0.1828134 -0.20035855 -0.18138725 0.2579484 -0.14751233 0.1341373 -0.1657471 0.16919474 -0.11969897 0.15836798 0.015618577 0.023282513 0.3013441 -0.13034312 -0.39149827 -0.032349247 0.07440785 -0.098367244 0.09042467 -0.19127521 -0.08467736 -0.4830944 -0.0022272102 0.21895386 -0.12761743 0.19172809 0.06101349 -0.29382938 0.019691883 -0.09066266 -0.23407644 -0.1565351 0.21465205 0.26503104 0.11919148 0.1685685 0.07694996 -0.41483733 0.023706852 0.20824318 -0.043271832 0.58140117 -0.25080776 -0.16159233 0.115732044 -0.0037999668 0.4762242 -0.082460076 -0.5100806 -0.233474 0.040413532
446 -0.120054044 0.35726514 -0.103487305 0.3597253 -0.0069421777 -0.3921978 -0.067354366 0.41640556 -0.09209804 -0.36658648 0.11280502 -0.17235519 0.30104122 0.21261965 0.2775203 -0.2508312 -0.079714015 -0.35277948 -0.008063449 -0.33896098 -0.20249209 -0.020524608 0.04486492 0.08658342 0.22129966 0.16340584 0.031129649 -0.051060624 0.18402685 -0.2947187 0.03417144 0.16338584 -0.28725776 0.0724504 0.20957759 -0.4148559 0.4517233 -0.27499548 -0.029402591 -0.18799125 -0.2099421 0.011702058 0.11894971 -0.089656055 0.26945186 -0.13723631 -0.007853324 0.21048898 0.3126441 -0.048356142 -0.042626068 0.12722078 -0.13245925 0.15781401 -0.26148683 -0.36860672 0.27080396 -0.15152308 -0.017600827 0.11150047 0.24255067 -0.19081435 0.15259133 0.07500181 -0.680116 0.028856706 0.48593298 0.15825202 -0.11281201 0.15278028 0.05431515 0.10123317 0.13448472 0.07015843 0.5316553 0.17160779 -0.01553453 -0.29556498 0.30492815 0.19802883 -0.19190916 0.13821076 -0.024211515 -0.21603298 -0.26789513 0.093651466 -0.18548374 0.3493754 0.37570533 -0.09819791 0.07771797 0.34703445 0.0071745575 0.24504724 0.62788993 0.47889668 -0.006495379 -0.26776457 0.03791946 0.10116535
245 -0.12583366 0.29241678 0.097866654 -0.34947327 0.3304872 -0.40493906 -0.16433734 -0.18617907 -0.6670755 0.033339906 0.043685082 -0.18030708 0.07053495 0.24687253 0.22686689 -0.1491172 -0.04977781 -0.30239615 0.16167043 0.028920999 -0.1344477 0.15876561 0.4367118 -0.054774147 -0.37322688 0.24233131 -0.41504273 -0.4315719 -0.3600581 0.06687428 0.46468273 -0.14468479 0.030040387 -0.3155702 -0.10989323 0.61826605 -0.2175462 -0.21277139 0.27392507 -0.18201892 0.08884089 0.08529846 0.034804095 -0.32295957 0.16169381 0.31397095 -0.40209496 -0.3972058 0.16139098 -0.14427043 0.07928438 -0.09210467 -0.20430362 0.26074523 0.050176594 0.14105561 0.035947066 0.09507939 -0.33423033 0.3251902 -0.1768196 -0.121480696 -0.37802148 0.025380295 0.011882534 -0.05263281 -0.05490143 -0.19420609 -0.17907147 -0.3126463 -0.25756878 0.20708932 -0.12917046 -0.16656116 0.11100891 0.27905884 -0.06789897 -0.030717574 0.06877374 -0.12086363 -0.16535407 -0.14025417 -0.501708 0.7217569 -0.03932679 0.1653857 -0.0797404 0.38199902 0.42132786 0.14963625 0.47260216 -0.24434286 0.28942695 -0.00073800253 0.08606778 -0.06612533 0.081618935 0.026713004 -0.1370313 -0.43072736
327 0.32573238 -0.014202426 -0.24321757 -0.3167022 0.12226833 -0.14969428 -0.16092181 0.3000868 -0.05962481 0.16807763 0.14454857 -0.015129111 0.24225914 0.06364303 -0.048448417 -0.11238508 0.03964951 -0.25144905 0.06673377 -0.69075686 -0.25202638 0.0936624 -0.03874867 -0.16128024 0.34267205 0.3728643 -0.43913907 0.28101274 -0.018189387 0.11893098 0.3252044 0.3622722 0.032262586 -0.02251324 -0.18971509 0.38236132 0.5010236 -0.18217872 -0.15981846 -0.3195604 0.19997647 -0.22731902 -0.18418893 0.57422245 0.48114336 0.03360075 0.036679517 0.046825822 -0.16140643 0.031757727 0.122304946 -0.12562968 -0.22866952 0.038544636 -0.4701635 -0.47677255 -0.058538064 0.29634073 -0.40957046 -0.094497114 -0.05796691 -0.23667867 -0.17517914 0.1409292 -0.040564425 0.2831235 0.42872357 0.056530703 -0.15075663 0.43941644 0.11634271 0.10678505 -0.26339045 0.035983305 0.39905292 0.14075701 0.1637879 0.046258338 0.14815606 0.21390083 -0.052327015 0.08159832 -0.26574942 0.101294026 -0.36490008 0.080311365 0.23268616 0.45581117 0.16390623 -0.22104612 0.2730215 0.1823632 -0.100015365 -0.3978911 0.20810129 -0.07687296 0.08831114 -0.08880744 -0.0024741837 -0.059148185
422 -0.28065103 0.2296173 0.331998 0.4403428 -0.02392358 -0.3708691 0.32737133 0.39167687 -0.2980253 0.27753308 0.062532626 -0.33926165 -0.20285028 0.17034811 0.030998416 -0.17900069 -0.35704488 0.17662518 -0.36392683 -0.030946314 -0.0533447 0.013310086 -0.09346068 -0.2583939 -0.25796658 0.14506781 0.15443371 0.08164735 -0.36464956 0.26647565 0.60795 0.08030482 -0.36582443 -0.4973405 -0.40191826 0.2666469 0.10870857 -0.045507967 0.060407136 -0.13115652 -0.17468002 -0.06387862 0.0712211 0.20673428 0.38981423 -0.06460694 -0.025917258 -0.17012264 -0.22751753 0.3323067 0.32094073 -0.385543 0.09844229 0.156784 0.15491308 0.21015657 -0.40330768 -0.10462271 -0.13829844 0.11339261 -0.15991528 0.24812184 0.011851083 -0.22435941 0.39697617 0.2620991 0.38701499 -0.18987665 -0.09474414 0.20701534 -0.26104864 -0.20372252 0.057432722 0.030477447 -0.08001205 0.30331117 0.0028122703 0.11119369 -0.11831558 0.08838147 -0.018935757 -0.77950597 -0.23384918 0.41357148 -0.6456273 0.18661344 -0.16561957 -0.22850747 -0.01603814 0.36430782 0.24390331 0.17406544 -0.023142494 0.1319348 0.2626435 0.14726438 -0.3785002 -0.44137463 -0.1635909 0.19300166
268 0.44183823 0.17824729 0.19711214 0.033533387 -0.25974256 -0.32778955 -0.0052483073 0.39027414 0.06296866 -0.008025396 -0.30469286 0.09000659 0.0022592135 -0.15290394 -0.074717574 0.31414944 -0.13305293 -0.2934438 -0.062491857 -0.40379888 -0.022557512 0.36830747 0.1148379 0.11607745 -0.21968174 0.06145111 -0.20453458 -0.092262715 -0.070694014 -0.11332659 -0.09493166 0.40705815 -0.06382343 0.113091305 -0.35913986 -0.11354753 0.105583034 -0.23830451 -0.17612056 -0.1578124 -0.005529781 -0.11310491 0.12049121 0.06268345 0.3425976 0.085064545 -0.5424438 0.1862313 -0.069877036 -0.069585934 0.0019789361 0.31391972 0.18828754 0.054522146 -0.23190214 -0.5561936 0.13073348 -0.006415514 -0.17694181 -0.2309205 0.16391332 -0.30872843 -0.22600512 -0.07666095 -0.30730924 0.32711494 0.5452897 0.09980049 -0.40994453 0.35762954 0.40690902 0.19951382 0.37870264 0.3091482 0.26417598 0.2744845 -0.044070795 0.17242068 -0.2810734 0.13398854 0.032343574 0.21065539 -0.26176554 0.3029436 0.20236804 -0.02937967 0.13867491 0.08416769 0.08276697 0.0075714514 0.44517055 0.46198586 -0.050142884 0.30954745 0.10794489 0.044189837 0.19925576 -0.36835915 0.040998895 0.03515793
467 0.14371018 0.22235882 0.18967092 -0.10263421 0.21892548 -0.3712794 -0.03666478 0.2625396 -0.10459681 0.04073814 -0.26675758 0.23243265 -0.24177168 -0.098660685 -0.067960165 -0.31330186 0.047509693 -0.08382176 0.635464 -0.5931618 -0.1549187 -0.020457963 -0.34759268 0.15746014 0.28276542 0.03337795 0.0046965615 -0.10785331 -0.042776853 0.12998979 0.039535888 0.5906887 0.41010207 -0.09141525 0.0095356535 0.16723046 -0.14093728 -0.47040886 -0.12902692 0.1277049 0.16333255 -0.50701225 0.18500327 0.24662884 -0.02399813 -0.2877809 -0.2660678 -0.11410245 -0.0631664 -0.21825446 0.37208942 -0.15351817 -0.1277037 -0.11724285 -0.025943032 -0.3022469 0.053124573 0.14071466 0.005132626 -0.26856443 -0.052029796 -0.18216582 0.04364888 -0.053419687 -0.51311857 0.08992485 0.54195786 0.06011926 -0.5571324 -0.5207654 -0.01189113 0.24787842 0.26427785 0.26151562 0.38935754 0.21045035 0.20374562 -0.014201901 -0.35986313 0.14526588 0.0746784 0.44387326 0.16715647 0.07907274 -0.07371408 -0.03604498 -0.03961581 0.19724514 0.41722 -0.31565213 0.31744713 0.18134096 -0.17633764 0.28821862 0.23735012 -0.125689 0.15820757 -0.37464443 0.01787986 -0.00839345
244 -0.34488305 -0.026610496 0.19235058 -0.0054085464 0.046836592 -0.07829686 0.044088125 0.11690451 -0.25500107 -0.09682082 0.12959702 0.11335028 -0.44012576 0.2469105 0.15398712 0.008735898 -0.0271153 -0.35429814 -0.36712763 -0.15155992 0.122842364 0.60056454 0.50478834 -0.35341924 -0.12274252 0.20646562 -0.17172123 -0.20435515 -0.25274375 0.21513121 0.44264317 -0.071051754 -0.08793478 -0.15214886 -0.07213003 0.32559383 0.034324415 -0.2570231 -0.057734575 -0.36364162 -0.09869404 0.02238959 -0.25340754 -0.14226586 0.44978744 0.340426 0.19795232 -0.2594527 0.2172352 0.21323183 0.093856305 -0.04146731 -0.1026249 0.44227797 0.070637286 0.16997698 0.09738245 0.314498 -0.18813151 0.04400636 0.25290108 0.27411845 -0.1103958 0.046797097 -0.13676955 -0.04637278 -0.20306666 0.13510683 0.2068968 -0.21851999 -0.20887727 0.05090645 0.059501037 0.07766293 -0.13740681 0.08207891 -0.16236505 -0.030828033 -0.14469054 0.21326812 -0.09442878 0.12797973 0.10035325 0.39930856 0.21853754 0.0762784 0.17174336 0.34255302 0.089752376 0.15280257 0.68164194 -0.18587595 -0.0043067355 -0.35036376 0.34503138 0.42361224 0.017696109 -0.23691583 -0.28763032 0.07008071
193 -0.21020076 0.04495128 -0.3064464 -0.25001478 0.2198938 0.038864166 0.28670496 0.44221961 -0.10909482 0.030426715 0.22643635 0.019210301 -0.44682273 -0.058136344 -0.12276182 -0.11898859 -0.10162108 0.1028962 0.1749371 -0.71299607 0.15035038 -0.022843901 -0.28203735 0.14068079 0.23901448 -0.18917334 0.086237006 -0.14426413 -0.24365005 -0.072863966 -0.24693227 0.20634581 0.2594742 0.07961293 0.12224578 -0.013830547 0.22495432 -0.3399657 -0.13857682 -0.44010928 -0.32379124 -0.20776148 0.05924247 -0.07702085 0.39937884 -0.40394086 0.02130827 0.12648484 0.032951877 0.2354831 -0.17495883 0.2892955 -0.21854903 -0.012545729 -0.07444979 -0.2946612 0.26322675 -0.25694063 -0.22271115 0.12080126 0.2536187 0.22641723 0.09682338 -0.12684692 -0.48061073 0.25736013 0.34596378 0.09196714 -0.16059764 0.39799088 -0.09767199 -0.4101907 -0.059671566 0.017096313 0.11003665 -0.07002486 0.11060237 -0.0035213174 -0.050231837 -0.08935615 0.21135446 0.27166578 -0.33872506 -0.121359326 -0.13609658 0.3268368 0.14535534 -0.017710147 0.032683827 -0.23514321 0.38558203 0.2712359 0.093338564 -0.007033222 0.05642131 0.35488692 -0.079014845 -0.5142713 0.16901258 -0.23197481
102 -0.021215351 0.15212002 0.032656595 -0.1604981 -0.42638078 -0.44020596 0.23714587 0.25317836 -0.25444198 0.30772763 0.30646065 -0.0965531 0.48311827 -0.068246335 0.12051786 -0.15970933 -0.129317 -0.19474138 0.00959829 -0.19200133 0.29815292 0.2624315 0.34909904 0.36004713 -0.031000923 -0.29166102 -0.0026664003 -0.23049864 0.08611753 0.14498058 0.49280524 0.37427586 -0.14625897 0.17304245 -0.06722562 0.45600396 0.112648934 -0.22937077 -0.17214912 -0.36534876 0.11191313 0.028191393 0.016536167 -0.49277815 -0.3045022 -0.27252886 -0.40452138 0.20005713 0.117609754 -0.00024225336 0.012395393 0.09443215 -0.22345704 -0.6602262 -0.22534879 -0.22983384 -0.2975528 -0.21617863 -0.4507627 -0.10139697 0.22268374 0.32412207 0.012182522 -0.30283397 -0.03068466 -0.2020072 0.35753006 0.15115096 -0.07247544 0.16162208 0.028444363 0.20821339 0.042562447 0.027142694 -0.120321944 0.23193333 -0.28198192 0.55968356 -0.35010317 -0.23734422 0.3293922 -0.28032947 -0.1892455 0.26615784 -0.27163514 0.18061648 -0.54181254 -0.153077 0.38234562 -0.074790485 0.3031116 0.024330512 -0.35000044 -0.22020385 0.025105271 -0.2084144 0.0036504727 -0.40387252 -0.067963265 -0.07166626
464 0.09935046 0.037049294 0.113449484 0.14766048 0.2877475 -0.28897676 -0.15600227 0.18811995 -0.036679573 0.11390216 0.07923223 -0.0615559 -0.58297086 -0.047678474 0.028605105 -0.17012548 -0.16704632 -0.39641333 -0.26339418 0.3378168 0.5143541 -0.16176178 0.45291775 0.12367825 0.08689867 0.09391281 -0.03695126 -0.36437863 -0.3126132 0.14223403 0.17250162 0.32621878 -0.2897508 0.06736192 -0.48567483 0.4128121 -0.17941548 -0.24201663 0.115303144 0.3363725 0.30398944 0.03230269 -0.12242145 0.2536054 0.44973886 -0.022235917 0.0042547453 -0.07201799 0.7849338 0.07487497 0.05150669 -0.035728563 -0.16356 -0.09395855 0.030956248 -0.042108152 0.23501095 -0.021635886 -0.33897552 -0.1344024 -0.09474138 0.18219468 0.013826109 -0.16669308 -0.1700687 -0.027633041 -0.11354181 -0.31953037 -0.4293397 0.24338919 -0.3629 -0.18548995 -0.015909964 0.15110703 -0.059571195 0.12415607 -0.17003287 -0.42832163 -0.20804615 -0.373508 0.17472453 -0.16960521 -0.21569191 0.2974452 -0.116420716 0.25813106 -0.56060815 0.23558037 0.32366464 0.17658485 0.37343848 0.15551105 -0.23581903 0.20995449 -0.032472197 0.3597877 -0.10665047 0.17317176 -0.20614313 -0.25917295
205 0.014755858 -0.14187463 -0.10317889 -0.16757286 0.09409356 -0.3380108 0.59581023 0.44078857 -0.12918822 0.09248368 -0.04031474 -0.24219966 0.3426112 -0.06059037 -0.15030158 0.08102926 0.09453461 -0.17965224 0.13711129 -0.3411868 0.16727227 0.19780199 -0.11221769 -0.2595863 0.018993326 0.06948063 -0.31662896 0.33273342 0.05259656 -0.2933402 0.060825706 0.33859998 0.18496753 0.25087616 0.32840982 -0.30359614 -0.026844766 -0.7525852 -0.16249853 -0.49579453 0.06615717 -0.16785967 -0.34835488 0.17763871 0.2542371 -0.2597242 -0.24323541 -0.3314337 0.09719634 -0.13517606 -0.18172784 -0.06590645 -0.18092456 0.048093896 -0.07623715 -0.20296758 0.3692583 0.4141709 -0.25836995 0.008875979 -0.03998016 -0.30985543 -0.025237093 -0.15811057 -0.21738566 0.6116045 0.21768495 -0.06824106 -0.2602846 0.1512609 0.03993612 -0.14685322 0.48548532 0.07805511 0.0012856958 0.013803627 0.27205688 -0.23284602 -0.24190728 0.24636196 -0.01729562 -0.04559846 -0.1982859 0.023328856 -0.2242891 0.17734677 0.13388744 0.13174038 0.21686321 -0.3749897 0.26147166 0.20207512 0.3039416 0.023427393 0.06633497 -0.0008230395 0.12818196 0.076543055 -0.18869698 0.029464323
229 -0.48819238 0.1543784 0.24791002 -0.22540218 -0.09052477 0.10443779 -0.25142348 0.20093212 0.1234975 0.006939889 -0.2729281 -0.03801817 0.061751973 -0.13487986 0.32713383 -0.13157848 -0.49207667 0.48557505 -0.31618372 -0.1505756 -0.17271 -0.04191553 0.09217126 0.19366719 -0.009086377 0.46773422 -0.5767301 -0.30673796 -0.07991486 0.26788813 -0.30647543 -0.014484021 -0.122043386 0.031172713 0.0540603 -0.3477806 0.16530459 -0.4425051 0.045630798 -0.43829712 -0.05920732 -0.42385828 0.1249743 -0.48310393 -0.13510598 -0.13426195 -0.38545236 0.037414145 0.39432427 0.53344303 -0.24283852 0.35439238 0.5472419 -0.13062936 0.10259935 0.25512624 0.2853863 -0.037014827 -0.2121482 0.22980091 -0.061954282 0.25196227 -0.089045934 -0.46968615 -0.20861733 0.07007983 0.07488948 -0.12056251 -0.23634465 0.15402068 0.053162545 -0.12311042 -0.03185758 0.1977182 0.20360982 -0.19575432 0.562339 -0.15883857 -0.2177223 0.35003448 -0.29599324 -0.48226646 -0.068721786 0.28686923 -0.4237962 -0.1723554 -0.24174063 0.52229416 0.45951778 -0.47375995 -0.14949645 0.55096614 -0.11854001 0.41792488 0.5271694 -0.07354556 0.22123109 0.01351188 0.20958231 0.053255416
343 -0.21514021 -0.15992345 0.014801571 0.18662095 0.113810495 -0.23173366 0.27796632 0.24128982 -0.09792762 -0.28683034 0.07031805 0.21004663 -0.3985271 0.2352295 0.24617642 0.053658225 0.34867075 -0.34529966 -0.5475749 -0.4581749 0.3525966 0.47292843 0.09374005 -0.092299834 0.08923039 0.1427801 -0.28594258 0.00024655403 -0.129678 0.46109265 0.12664364 0.07700019 -0.014607306 -0.47520566 -0.19834624 -0.10486617 -0.31573054 -0.09270997 0.0689645 -0.13233241 -0.09097144 -0.011683907 0.1971264 -0.3019344 0.044210114 0.029922716 -0.13927849 -0.050860845 0.3423831 0.26274118 0.113258936 -0.3868414 -0.3138654 0.49454474 0.19914317 0.061038557 0.120651476 -0.08961055 -0.30483872 0.2595748 0.13563621 -0.097626105 0.029008776 0.11266782 -0.06468621 -0.21778056 0.1269088 0.07392116 0.035030365 0.08723943 -0.01622548 -0.13902922 -0.08740905 -0.34455377 -0.32328254 0.47997785 0.18646125 0.16785735 -0.21508117 0.03875238 -0.2824732 0.10080406 -0.20448217 0.24128859 -0.2296129 0.2067852 -0.077996485 0.661484 0.2975157 0.13019556 0.76864636 -0.17237407 -0.05789536 0.390839 0.26134524 0.1879682 -0.124079145 -0.100200646 -0.37677664 0.11818481
246 -0.1081977 0.07506822 0.3307264 0.31676236 0.109948516 -0.25935534 0.07874146 0.034558013 -0.07330967 0.16161546 -0.15048705 -0.20003255 -0.11865782 0.48033682 0.09616376 0.16231406 -0.053134754 0.033763282 -0.28704992 -0.09448837 -0.09305406 0.30844802 0.14296846 -0.39313194 -0.13723129 0.4299374 -0.4530553 -0.0836118 0.09412909 0.34593925 0.25467598 0.03866048 -0.0050706496 -0.2446617 -0.10804452 0.51728016 -0.08375937 0.05063147 0.07922244 -0.119407736 0.0731165 -0.009439172 -0.10578334 -0.3086143 0.5188567 0.18396094 0.19831657 -0.049608298 0.23970073 0.011984102 0.24413237 -0.53116435 0.250239 0.46316478 -0.37895635 0.49595702 -0.14839956 -0.06281252 -0.18147556 0.024392227 0.19401157 -0.17637832 -0.115013756 0.12093264 -0.19669963 -0.0033284219 -0.042621333 -0.21069762 0.006411877 0.04987681 -0.12172561 -0.09341621 0.21657163 -0.24292086 0.02241187 -0.013169358 -0.17455363 -0.14687103 -0.08497943 0.003235116 -0.19948828 -0.09540041 -0.5569769 0.32874072 0.22377023 -0.083061315 0.18754864 0.40524814 0.08217319 0.17895067 0.40324172 0.28019598 -0.11184683 0.2035895 0.2963453 0.2325017 0.22925563 -0.34778216 -0.17391376 -0.21388485
58 -0.032728806 0.37881374 0.08411578 -0.06740753 -0.17301068 -0.007256191 -0.0753536 0.2028749 0.5236967 0.12754399 -0.11197752 -0.14195709 0.20185548 -0.22223245 -0.40496564 -0.17999043 0.3496548 -0.0051272935 0.31381017 -0.26258302 -0.1270805 0.012546272 -0.00840376 -0.1654265 -0.2908178 0.3918468 0.3113476 -0.37110773 -0.01796112 0.06815596 -0.027816355 -0.2803911 0.059714995 0.07907959 -0.2632514 0.29522428 -0.11171843 -0.09835403 0.05334479 -0.06187692 -0.20313503 -0.67067695 0.1785649 -0.38294291 0.14217167 -0.019712254 -0.46910077 0.23296317 -0.5685199 0.21575893 0.16597591 -0.08660444 0.3973563 0.032468382 -0.48986593 -0.06642178 0.21407251 -0.123411275 -0.5300992 0.15429321 0.16319598 0.49391976 -0.17899138 -0.107580915 -0.0864788 0.14473087 0.34246528 0.044218652 -0.7302791 0.0150064835 0.21162118 -0.095156215 -0.104486406 -0.0064013465 -0.040428832 0.27195883 0.2302734 -0.1757905 0.32495487 0.25030684 0.14995444 -0.092224106 -0.46309167 0.15517189 0.25354514 -0.08879895 0.26879704 0.2660144 0.20998529 -0.17155091 0.3766225 0.3934399 -0.09081327 -0.1715057 0.053389505 0.05080676 -0.09013449 -0.49482995 0.10027069 0.2137138
318 0.025403686 0.17790319 0.11535624 -0.015358227 0.40103197 -0.2360226 0.28334874 0.33087012 -0.2809127 -0.10130008 -0.3214713 -0.3011337 -0.16600363 0.36481845 0.09210761 -0.28922665 -0.012245008 0.25692025 -0.24324885 -0.05949466 0.031905264 0.16174635 0.21781202 -0.46919188 -0.10770952 0.24033193 0.015137231 -0.09353636 -0.16186444 0.059348594 0.41035405 -0.02865986 -0.12757874 -0.17720613 -0.040914763 0.10159315 0.3209833 0.16024478 -0.28189275 -0.24465962 -0.05972793 0.31524068 -0.23357329 -0.28067333 0.23744334 0.18078814 0.15195008 0.46127924 0.072444014 0.33733258 0.0883419 -0.41630915 -0.21360278 0.111448884 -0.2754479 0.38343138 -0.15191789 0.12093444 -0.05543279 -0.028886056 0.25057402 0.49822876 -0.18476804 -0.13839506 -0.69877285 -0.38668326 -0.25634956 -0.23130867 -0.3705395 0.24213733 -0.08060538 0.15135528 0.17193161 -0.189541 -0.14254633 0.2619025 0.26593277 0.20167695 0.037087116 0.4011757 0.10939829 -0.18159309 -0.47296917 0.54042554 0.12790981 0.11515773 -0.1617453 0.1269522 0.0409107 0.01525099 0.25445125 0.3677236 0.18148626 0.2503158 0.07166552 0.06053921 -0.068044774 -0.12818822 -0.19927008 0.10364631
292 -0.15845333 0.053002786 -0.012584869 -0.08255855 0.017251063 -0.34810668 -0.16023538 0.18502326 -0.22016218 0.09654222 -0.27129656 0.03022777 0.16857442 -0.32591978 0.03486399 -0.134283 -0.19382761 0.043053605 0.5344276 -0.15653935 0.49577132 0.040935032 0.009416186 0.41607234 0.23965931 0.15163304 0.20788752 -0.21488583 0.19839756 0.06954428 -0.3762214 0.49116606 -0.14225748 0.19376293 0.37711558 0.054908063 0.3791655 -0.35995048 0.080155775 -0.026012233 -0.07037334 -0.22667345 0.15994845 -0.01330054 -0.053089157 0.22057654 -0.1708768 -0.052141946 -0.15681843 0.29204956 0.36421373 0.048606597 0.19988826 -0.49482653 -0.3637734 -0.35704115 0.08887661 0.24357691 -0.3654869 0.36652404 -0.03246557 0.07925417 -0.171058 -0.05135954 -0.46159443 0.40387395 0.20680484 0.5032975 -0.085870504 0.43230098 -0.4860754 0.42172626 0.035496835 0.16238634 0.12948647 -0.065509684 0.025500223 0.08846581 -0.5268047 0.12932727 0.11320262 0.44932753 -0.18131098 0.46040004 -0.26286244 0.23834735 -0.110077545 -0.008152821 0.11348041 0.44858402 0.34102887 -0.06856879 0.14800167 0.3042596 0.55332613 0.49030867 0.25639558 0.0067876643 0.11521564 -0.5953066
442 -0.17519695 -0.14219715 0.38991764 -0.06718151 0.01342639 -0.018553045 0.24018712 0.1796722 -0.28319243 -0.26576522 -0.68677014 -0.11715465 0.39818412 0.19468266 0.21228857 0.0678811 0.016881444 0.04638797 -0.2634808 -0.21531731 0.023277087 0.28742084 -0.109847106 0.4560212 0.15353228 0.029107427 -0.062016718 -0.10129788 0.16446066 -0.01670269 -0.21460545 0.4315826 0.07412643 0.13874552 0.15092283 0.59384596 0.26795828 0.023464305 -0.005550365 -0.34140086 0.11649062 -0.25090402 0.14607975 0.14103805 0.5417021 0.19025457 -0.08855089 0.5613415 0.20548749 -0.12131875 -0.12983365 0.23774892 -0.2538059 0.5869892 -0.38693225 -0.25837347 0.17338814 -0.0623921 0.042749394 0.2672971 -0.4981466 0.19986442 -0.17158286 -0.006768263 -0.53709066 -0.0263711 0.12700234 0.47558117 -0.34188384 0.347403 -0.53081775 0.04512845 0.12714131 0.11557062 0.44708124 -0.17721656 0.22077502 -0.0002703769 0.121282294 0.57260174 0.41072986 0.1953296 0.038632724 0.04592868 0.27760658 0.04064217 -0.25167325 0.3199513 0.6673269 -0.26042 0.24430011 0.4297113 -0.08942677 0.31867003 0.11240447 0.20453623 -0.14232983 0.2594401 -0.014127165 -0.1155525
175 -0.4380362 -0.052405868 0.07843729 -0.4862023 0.0198188 -0.34927756 0.09971454 0.17453426 -0.045768566 -0.20181058 -0.19310288 -0.2734456 0.066948116 -0.017714877 0.08393327 -0.14913204 -0.09118122 -0.40836155 -0.061575983 -0.28630096 0.42675784 -0.02066642 0.2971144 0.050429452 0.020926448 0.022499358 -0.096312165 -0.16871645 -0.13637288 -0.15533166 0.37871724 0.29294246 0.25572672 -0.7363847 0.20153415 0.47407308 -0.120713666 -0.15802081 -0.14487539 -0.5174593 -0.10125063 -0.13181087 -0.031966392 0.12761019 0.1343411 -0.24909964 0.040597547 -0.023403503 0.41408956 0.16899875 0.2760902 -0.25521693 -0.15246777 0.30346993 -0.010575386 0.21993281 -0.13331927 0.040257722 -0.026837537 0.31796458 -0.02251372 0.275282 0.1817618 -0.07210711 -0.27959082 -0.025680365 -0.31417978 0.4448105 -0.17285734 0.25556934 0.27970454 0.17717437 -0.017895667 -0.29917207 -0.10009537 0.0657341 0.013152218 -0.16383219 -0.20108163 -0.31231943 -0.26311344 -0.062037896 -0.18635473 0.08134 0.041291013 0.16440031 0.09811688 -0.05649823 0.11211822 0.42398706 0.4395861 0.16874725 -0.7023314 -0.25681388 0.02107764 0.15139061 0.013204049 0.083988465 0.09560849 0.18033051
156 -0.043785863 0.12913114 0.3548775 -0.029079063 0.33144897 -0.49881706 -0.22698373 0.11031595 -0.07727777 -0.05618026 -0.22184773 -0.22155677 0.25069246 -0.10601562 0.23915368 -0.22608672 -0.3666745 -0.35740927 0.21154067 -0.38141176 0.29397264 -0.07240383 0.08582216 0.28550753 -0.08080998 0.27786994 0.5409066 0.054574218 -0.3883979 0.090901464 -0.1699141 0.41025272 0.09486521 -0.07906636 -0.08282497 -0.052631136 0.37342897 -0.1766301 -0.09815097 0.09880312 -0.32867005 -0.4730191 -0.111879185 -0.19583507 0.35850102 -0.18893035 -0.37617406 -0.18477225 0.4041408 -0.25547734 0.09570276 0.10889286 0.09531281 0.2417334 -0.2088482 -0.2120376 -0.0011357114 -0.12727678 -0.030114925 0.1842944 0.17570628 -0.26926196 0.051136333 0.0136175705 -0.21493852 0.47080594 0.6549824 0.19297044 -0.6652174 0.1921653 -0.21114942 0.07313275 -0.12502575 0.19706085 0.3074916 0.18317616 0.011390208 0.084085636 0.0696774 0.33524165 0.05197407 0.3502758 0.114294715 -0.009171098 -0.04028081 0.058539283 0.20179735 0.03376263 0.3615577 -0.15558547 0.10180666 0.033278845 -0.05928363 -0.09506365 0.48021168 0.07415337 -0.0544342 -0.15285589 -0.052294184 -0.050715048
109 0.43679804 0.2883709 -0.029137667 0.26506478 0.14439574 -0.38972297 -0.20121902 0.53193974 -0.24886778 -0.06620075 -0.13702154 0.029843206 0.21294078 -0.14685927 -0.0908933 -0.009906403 -0.13559206 -0.16710335 -0.089449555 -0.3751692 0.24551904 0.36118767 -0.13349861 -0.029940916 -0.012120588 0.1553279 0.122702576 0.11817494 0.24265905 -0.017090522 0.079708345 0.52604395 -0.14765263 -0.017019965 -0.1360315 0.28994703 -0.053727377 -0.4127527 -0.23855661 0.044749953 -0.10058885 -0.1057505 0.054627303 -0.35609394 0.13947128 -0.32170278 -0.41135705 -0.102650516 0.27147323 -0.06815138 -0.24936472 -0.04815171 0.12399065 0.24832222 -0.0714384 -0.22615726 -0.23114061 0.010049838 0.030055337 -0.007359048 0.27002886 -0.23741055 0.33227202 -0.2270468 -0.2233625 0.12936199 0.6731516 0.09906925 0.11246348 0.14313376 -0.34517252 -0.025733242 0.13364026 0.040908244 0.48952952 -0.064099334 -0.057172317 -0.21759892 -0.16313922 0.25730157 0.13597527 0.48119575 0.046445668 0.07906914 0.09981089 0.2978188 0.10808534 0.24251205 0.32915455 -0.25835404 0.1624429 0.24961159 0.17723306 0.14437254 0.62526286 0.1202909 -0.2944774 -0.18208975 -0.07782091 0.039098322
